  -2.03746    2.00227  -0.589847    2.15874    1.27328   0.889277   -1.23356   -4.97035    3.66566   -5.83007    -4.2938   0.841616   -3.66669    1.82243   -1.64803    1.34694    2.34986   -2.23588   -1.11131   -2.15725   -2.04585  -0.426392   -2.26637   -2.06551    1.52467  -0.271439   -3.79595   -2.13686   -3.46891   -3.08291   0.246962  -0.813803  -0.270667    3.34617    1.36809   -4.85847  -0.314727    3.92515   -1.25081   -2.15425   -1.59658  -0.369162    2.51088   -1.34151   -1.10144    1.22841   0.160294  0.0242118    1.83442    2.39538
  -1.43147   -2.73402   0.620259   -1.12274   -1.37631   0.136729    1.46621   0.694576    4.84927    2.16534   -1.01059    2.94643   -2.18239   -0.18993   -2.92773    4.94743   -1.68208    3.31518   -1.60444    3.46343    1.36483   0.634663    3.47645    -4.8216   0.631164    1.36035    2.72356   -1.09015    1.95016   -1.78813    3.07319    3.35903   0.294194   -3.37002   -1.67789   -2.37059   0.343633  -0.729023    1.31998   -2.55511  -0.284057   0.665015    -1.0532   -4.56491  -0.624043   -1.68296   -3.71717   -3.22163  -0.512693   -1.03081
   2.03552    3.60271   -3.92112    3.34601   -4.63565   -1.75261  -0.944107   -4.38842   -4.17617    6.24913  -0.350985   -5.36955    1.29581   0.978284    1.67591  -0.233527    2.71371    2.34323    1.35876   0.721388   0.911005   -2.25213    1.12092   -3.37143   -3.17204  -0.399653     2.4294    0.67405   -4.49514    3.72784   -1.44931   -2.68263   -5.64288   -3.15987   -1.36789   -2.84539   0.686033    3.26011   0.151683   -1.57272   -5.43859   -2.24434   -1.69336    2.44546   0.227214    1.51796    3.56214   -4.00609    2.69486    4.55456
  -3.44023   0.363907    2.06598   -1.07725    4.79126   -2.65963   -4.45494    2.53688   -1.95343  -0.439754    4.41038  -0.238493   -3.01225   -4.25311   -2.29154   -4.05526    3.36385   0.657651  -0.903994    3.57443   -4.68071   -1.01877    3.74673    3.82637   -1.93716   0.679026   -4.23013    -3.0358     -5.743    1.19256    4.20516    1.71025   -2.73144     1.5512   -4.81225    2.24902   -1.16027  -0.583551    1.45511    1.56526   -3.08827   -1.17332   -3.08978   -2.39662    3.47673   -2.98241    1.47317    2.14237   -5.21227   -3.32354
  -5.52916   -1.90359   0.273082    1.63028   0.870352    3.05767    1.73313    1.15102    1.06245   -1.86805    2.03011   -3.64053  -0.147134   -2.04336   -1.53871   -1.71039   -4.13979     3.0882  -0.733106    1.75327    0.22282     2.1409    2.15324   0.291673 -0.0875389    5.32253   -3.37306     3.7287   -3.10088   -4.04591   -1.77964   -3.11324   -2.18005   -1.07713  -0.284312    1.30447    2.94493 -0.0684641   -3.37002   -3.79743   -2.85272   -1.28766    2.34131   -2.94866   -5.42939   -2.08076   -7.79939   0.673827    0.90315   -2.41063
   0.90692     1.5737   -3.51226   0.602385   -2.93608   -2.60834   -2.46798    2.24893   -1.16681    3.16821  -0.457121    1.94465    1.28001   -1.41016    1.60968    3.37737   -2.96203    1.65777   -1.57686    -7.7032   -1.74931    1.27866   -6.40329   -3.22269   -3.32775    1.29435 -0.0874176    2.13444    5.82828    2.19092    2.96284   -2.24509    4.55757   0.748013    1.29387   0.328518    1.99721   0.477505   -4.55452    1.12905     5.2127   -4.00842   -4.59462  -0.625514   -1.61842   -5.56008    2.52788   0.293812   -2.55146   -3.89189
   2.39401   -4.05447   -0.34012   -1.69531    1.50447   0.150329    1.54774   -4.40256   0.665105     -2.219  -0.227436   0.112664   -4.45831   0.126721   -3.06735   0.324556   -4.74142    -3.1111   -3.24687   -2.60909    1.10605   -3.56571 -0.0431802    2.13843    1.04627    1.30312    2.00235   -3.80865    3.23541    -4.2681  -0.663647   0.135717    1.11417   -2.89205   -3.04911   -1.11893  -0.146839   -3.99997  -0.138478    3.12541   0.595174     2.5132   -1.09417   -2.88122    2.37918   -1.38268    -3.9209  -0.449651    2.56097    3.13318
  -2.62243  0.0481748   -1.11093     2.9529    1.17506    1.27764    2.43866   -4.45759    1.88922   0.637303   -1.70776    4.74343   -3.26353   -4.36525   -1.93974   -1.07369    2.54616   -2.12583   -4.02393   -2.34141    3.44031    1.86092  -0.524344  -0.576793    -1.6995   -1.20777   -3.43625   -1.70777 0.00732273    5.53537   -4.16416    1.37098     2.7923   -1.37522   -1.39634    4.54301    1.46136   -1.91468    1.99797    2.57437   0.279788    6.42513   0.388187   -3.14026   -1.63967   0.217314    2.71953   -1.97401   -4.14546   -1.37148
  -2.63746   -1.54139  0.0795097   -5.29271    -2.0162   -6.84311    4.98904   -5.40957   -1.13016   -3.22688   -3.28678    2.42939    4.27336   0.560219    1.74147   -2.39585   -1.27125   -2.26019    2.06974   -2.27795      1.311   0.643328   -3.54078    2.78806     2.4053   -2.21061   -3.27263    1.76839   -3.89325   -4.64121    2.82695   -3.23241   -3.18508  -0.253351   -2.37355    1.13602    -3.4926   -5.45355   -1.80915   -1.75528   -1.19778    -1.5553  -0.283413    2.43432  -0.589969   0.183802   -3.50631   -3.37042   -2.90732   -1.80261
   3.85866   -4.90008   -1.96805   -2.19821   -2.62113    3.06118   -2.71908    1.66813    -2.0427   -2.68238   0.759636    -1.2116     1.3486   -1.76626    2.84158    3.02063   -2.35182    -4.2725     4.8675   -2.18961   -2.92599   -3.98406  -0.146999   -4.75093   -2.60642   -5.68416   -2.69089   -1.83959   -2.71282   -5.07654   -3.31086    1.90062  -0.717663    3.20759    3.65823   -2.73299   -4.34798    1.79797    3.22134   -1.51618    2.14009   -6.88934  -0.385228  -0.948562    2.55421    2.66323    2.24955     4.5455   0.515185   -2.06609
