  -0.0137661   -0.0294356    0.0143304  -0.00856321 -0.000964707     -0.03435   -0.0307437   -0.0249722   -0.0490109     -0.02074  -0.00964224   -0.0280422   -0.0214027    0.0232888    0.0176578    0.0176033  -0.00188857  -0.00349075    0.0148793     0.025059     0.073805    0.0213879     0.013274   -0.0244132    0.0279828   -0.0175773  -0.00552786    0.0314128    0.0509938   -0.0312096  -0.00288904    0.0143225   -0.0156771    0.0560323  -0.00445917  -0.00149078     0.152259    0.0217564    0.0080278    0.0105939    0.0931768   0.00838358    0.0714659     0.155271     0.249763    0.0233063     0.017981     0.132675     0.114177    0.0247588  -0.00025635    0.0556529  -0.00215528    0.0604622    0.0566913   -0.0372803    0.0278072    0.0138224   -0.0286283    0.0327088    0.0116253   0.00554736    0.0260361    0.0401598     0.186755      0.21347      0.21108     0.334207     0.360189     0.363461     0.433628     0.579265     0.724761     0.374846     0.272988     0.157823   -0.0604784    0.0181316   0.00667216  -0.00201587   -0.0707772    0.0208015    0.0740294    0.0218644   0.00396287  -0.00596634   -0.0511923   0.00271958   -0.0248963    0.0272974     0.164307     0.158468     0.470481     0.508867      0.58658     0.679688      0.50104     0.824514      0.46199     0.331923     0.581757      0.25897    -0.106214    -0.351973    -0.442826    -0.263686    -0.194522   -0.0518172   -0.0451725   0.00045199   0.00607197   -0.0045853   -0.0425352  -0.00799845    0.0194058   -0.0571347    0.0311508   -0.0582655     0.275572     0.365648      0.17447   -0.0150054     0.150888     0.226869       0.3652    -0.153312      0.19569      0.42196     0.381557     0.624101     0.665815    -0.290488    -0.497892    -0.502273    -0.436607    -0.233839    -0.157549   -0.0514335  -0.00865772    0.0216815    0.0638108   -0.0304321   0.00789547   -0.0534723   -0.0116397    0.0278425     0.278855     0.397891     0.828558     0.237704      0.37358   -0.0223339       0.3999     0.370217   -0.0870396      0.75326     0.682856     0.390143    -0.183698     -0.73081    -0.497865    -0.377076    -0.470897    -0.462666    -0.285271    -0.110134    0.0788242     0.090146   -0.0197609    0.0329713   -0.0226171    -0.117696   -0.0823775    -0.046695     0.328271     0.517386     0.113911     0.543885     0.335133      0.75128     0.320251     0.459976     0.112416     0.123412    0.0567699    -0.484323    -0.954273     -1.37188      -1.2921     -0.69847    -0.611499    -0.520391    -0.222331   -0.0426208   -0.0442987  -0.00993293    -0.043666   -0.0217416   0.00856528   -0.0272128    0.0170377     0.284793     0.514162     0.216903     0.177066    -0.147653   0.00877288     0.348263     0.509994     0.631556     0.364286    0.0224312    -0.613139     -1.17489     -1.39177     -1.10941     -1.05188    -0.966981     -1.04714    -0.778493    -0.100839      0.19435   -0.0535233   -0.0259726    0.0511809    0.0473092    0.0612598     0.103436     0.281311     0.258992     0.173462    -0.308232     0.457989    0.0714092     0.700538      1.06107     0.743276     -0.01909     0.194084     -1.01418    -0.988888    -0.685796    -0.939098    -0.307772    -0.342277    -0.857841    -0.871534     -0.34746    -0.181923    -0.244113    -0.172605    0.0507565  -0.00696927    0.0228612     0.111901    0.0152086     0.276494     0.120899    -0.191699     0.299635     0.369991     0.196049    0.0517968   0.00414089    -0.624435    -0.711361     -0.79088     -0.81253     -1.30191    0.0538983     0.429391    -0.423714    -0.343581    -0.658193   -0.0899698    -0.274957    -0.277737    -0.195272    -0.149109   -0.0573431   -0.0163122  -0.00565401     0.140174    0.0529075    -0.208709   -0.0837376     0.107225     0.159745     0.294754     0.171577    -0.714063     -0.92144    -0.967126    -0.839423    -0.717512     0.178116    0.0935158     0.487676     0.321604    -0.461039    -0.525125     0.105864       0.1334    0.0296542     0.112635   -0.0594695    -0.076918   -0.0225668    0.0460364  -0.00439909    0.0212185    0.0806886   -0.0712463    -0.138053    0.0259302   -0.0943118    -0.682614    -0.462621    -0.556139     -1.31608    -0.901656    -0.544821     0.313128     0.427358     0.764816      0.70216     0.781585     0.600826     0.418632    -0.363815    -0.224479     0.385436     0.589117    0.0927569   -0.0583945   -0.0469696  -0.00118548   -0.0340768   -0.0804925    0.0518925     0.245788    -0.332669    -0.106884    -0.234856    -0.309825   -0.0370611     0.132522    -0.387775     -0.39296    -0.595266   -0.0772206    -0.503665     0.179174     0.379116     0.204261     0.671733    -0.562623     -0.72509    -0.444051     0.102099     0.588024   -0.0117996    0.0475714   0.00036823   -0.0382365     0.035422   -0.0242998    0.0755953   -0.0857707    -0.633636    -0.180539    -0.135646    -0.843271    -0.209922     0.451569     0.292363     0.295213     0.355917     0.214644    -0.332758    -0.298407    -0.321938   -0.0726841     0.133173    -0.339176    -0.285496    -0.451833     0.590998     0.538068   -0.0387309    0.0718941   -0.0036673    0.0122495  -0.00259393     0.054516    0.0367372    -0.132351    -0.854068     0.388873     0.317744    0.0817368     0.501662     0.824592     0.120651    -0.595143   -0.0466767    -0.200144     0.118043     0.367704    0.0600722     0.383143    -0.945244    -0.409357    0.0275148   -0.0276918     0.371529     0.283791     0.175062     0.084718   -0.0367598    0.0265364    -0.011606    0.0186164    0.0947129    -0.071411    -0.343427     0.127316    -0.269908     0.745911     0.733954    0.0945635    -0.449509    -0.531263    -0.034652     -0.16288     0.420248     0.608786    -0.141625    -0.145811     0.388017     0.359045     0.351706    -0.290963    -0.206056     0.343817     0.207104    -0.156528   -0.0132547   -0.0496593   -0.0481395   -0.0383847    0.0778293      0.10206     0.122657    0.0685351    -0.194649   -0.0866024    -0.445259     -0.36342     0.306983    -0.189238     0.459559     0.489624    -0.352458  -0.00114965     0.120228   -0.0595997      0.38075   -0.0809448      0.72945    -0.165276   -0.0558936     0.147781     0.609055     0.150447  -0.00556646    0.0516207   -0.0691919   -0.0801598     0.049851     0.154498    -0.141832   -0.0665593    -0.189572     0.420597    -0.418786     0.356544     0.918554      1.00667     0.606024   -0.0599705    -0.824926    -0.278441    -0.376708     0.100503    -0.397889    -0.250293   -0.0812936    -0.940381    -0.376542    -0.243742     0.421099    0.0288085  -0.00597876   -0.0308411    0.0176037   -0.0813903    0.0502785     0.311687    0.0808972   -0.0284105    0.0867598     0.458455    -0.244937     0.144277     0.501626     0.123705    0.0899282    -0.082476    -0.232396     0.528996   -0.0744075    -0.280463    -0.890175    -0.541492      0.14497    0.0795602     0.180582     0.265144     0.540515    0.0119586  -0.00834839    0.0255548    0.0465577     0.046437    0.0599938     0.340761    -0.104583    -0.187788     0.319186     0.826273   0.00072272    -0.430204     0.940697        0.318    -0.345239    -0.421208   -0.0545998     0.484547  -0.00906653    -0.233374     -0.35154    0.0212985   -0.0332328     0.186124     0.571253     0.451412     0.376553     0.165699    0.0149638   0.00575997    0.0150879    0.0824518     0.197702     0.352131     0.358304    -0.290398    -0.255736     0.223661   -0.0892355   -0.0143078     0.800961     0.211796     0.652395   -0.0667228     0.207837     0.389967     0.323019    0.0824891   -0.0484134    -0.298101   -0.0968162     0.384652      0.32305     0.489827     0.261353    0.0714224    0.0486004   -0.0140258    0.0306178     0.134936     0.276611     0.178772     0.340367     0.180993     0.165495     0.213084     0.699074     0.170578    -0.633752     -0.24292    0.0752586   -0.0408446    -0.145064    -0.192843  -0.00488332    0.0237024    -0.482208    -0.351949     -0.17586    -0.247983     0.343962     0.547821     0.233544   -0.0819558   -0.0304366    0.0323296    0.0384206     0.136743     0.212664     0.221109     0.238313     0.219376   -0.0905205   -0.0975759     0.143023     0.505871     -0.58131    -0.577969     0.103683    0.0933405    -0.541417   -0.0133889    -0.334673     0.182035    -0.208067    0.0849847    -0.529361   -0.0657136    0.0991367     0.278384     0.181603    0.0130049   -0.0182615   -0.0559321   -0.0432818   -0.0437255   0.00231725  -0.00337736    0.0593698   -0.0925403    -0.133092   -0.0401894    -0.233848     0.134551     -0.15301     0.188527    -0.204608     0.249281    -0.364264    -0.369299    -0.390698    -0.668679    -0.297005     0.178494     0.168005     0.370862     0.256062     0.202757     0.145485   -0.0374838    0.0168403   -0.0329233   -0.0248532    0.0249685   -0.0124395   -0.0555276    -0.108494    -0.557501    -0.600946    -0.750312     -1.00281    -0.618666    -0.665825    -0.739571    -0.755073    0.0979722     0.226487     0.162849     0.637063    0.0796617     0.277357     0.751043     0.480201     0.688686     0.332125     0.129733    0.0583134   0.00427961   -0.0500479    0.0539446   -0.0406891   0.00262031    0.0211079    -0.058456   -0.0544754     -0.17409    -0.300024     -0.46802    -0.490961    -0.560313     -0.27896    -0.108324    -0.222636     0.260408     0.294271     0.152098     0.500903     0.434998    0.0649269     0.414765     0.376686     0.190644   0.00297143    0.0424151    0.0169995    0.0356425   -0.0120229   -0.0205394    0.0539366  -0.00738548  -0.00632744    0.0722089   -0.0606242  -0.00574463   -0.0355398   -0.0178897    0.0338178   -0.0327588    0.0599227    0.0757221    0.0997097     0.179535     0.202633   -0.0636936    0.0194248     0.326095     0.124721     0.196246     0.103799     0.106452    0.0143443    0.0139456    0.0203201   -0.0220966   -0.0286733   -0.0333427   -0.0223148     0.053185   -0.0257716  -0.00382675   -0.0235406  -0.00225563    0.0373925    0.0221887    0.0145628    0.0363741    0.0331708    -0.001343   -0.0648726   -0.0259021   -0.0534969    -0.052337   -0.0192112   0.00739998    0.0485936    0.0318096   0.00213694   -0.0134123     -0.06541    0.0261069    0.0168226    0.0345293    0.0510539
 -0.00382356    -0.016268    0.0111604  -0.00297605   -0.0325457    0.0212062  -0.00655101   -0.0246793   0.00501316   -0.0254752    0.0259424   -0.0522828   -0.0696016    0.0481839   -0.0314766    0.0173801   0.00371981   -0.0439839  -0.00234715     0.036335    0.0600598  -0.00753482   -0.0204084   -0.0391891    0.0433538   -0.0304293    -0.032382    0.0221436    0.0329014    0.0298885    0.0248291    0.0475558   -0.0147103   0.00294374    0.0230829    0.0128747   -0.0267039    0.0413537   -0.0143043    0.0669107    0.0404601    0.0274291   -0.0687307   -0.0442238   -0.0158901   -0.0523858    0.0171079   -0.0411339  -0.00991873  -0.00723652   -0.0693737    0.0339454   -0.0240738     0.108694   -0.0108191   -0.0176061   -0.0545632   -0.0128778   -0.0169305    0.0265965    0.0143814   -0.0516804    0.0223138   -0.0456671  -0.00963634    0.0326519    0.0724347    0.0036581    -0.114514    -0.147479    -0.340658    -0.229043    -0.139534    -0.052851   -0.0624643    -0.301474   -0.0531455   -0.0254318    0.0493269    0.0443921   -0.0586213     0.023553   -0.0196636  -0.00699306    0.0255048     0.010932    0.0445564    -0.034272    0.0201928    0.0369953     0.028575    0.0655516     0.193323     0.299213     0.163646   0.00489528     0.256735   -0.0859598     0.127367     0.197675    0.0186276     0.193184    -0.453849    -0.367655     0.132401     -0.14703    -0.233179     0.120179    0.0624712    0.0217986    0.0378373   0.00495416   0.00585333    0.0137258     0.041072   -0.0133193   -0.0412889    0.0857639     0.210375     0.329641     0.425077     0.878951     0.584669     0.974166        1.324     0.421385     0.756014      1.40155     0.199557     0.103524     0.119741    -0.493941    -0.724527    -0.588005    -0.281192    0.0876466    0.0611829    0.0531149    0.0407614  -0.00258827    0.0145309    0.0387131   0.00630225  -0.00732233  -0.00420858     0.337003     0.510743     0.703023     0.816661     0.722826     0.388085    -0.120698    -0.191766     0.230364      1.18505      1.03021     0.261064    -0.562714    -0.347636   -0.0133468     0.312485    -0.079843    -0.268307   -0.0877092     0.199378    0.0325572    -0.011074     0.034171    0.0445179   0.00898339     0.040685    0.0331062     0.123722     0.478156     0.416717     0.593046     0.224833     0.128939     0.508547    -0.400681     0.539879     0.148552     0.185368   -0.0974303     -0.63541      0.31596     0.471213    0.0466447     0.204572     0.468153     0.225841   -0.0242438      0.28953     0.264422     0.111933   -0.0692795     0.024362   -0.0282763     0.043216     0.180704    0.0330644     0.119338     0.271581     0.145433     0.218042     0.203277     0.698327     0.546424     0.689402    -0.121835    -0.239179     0.108953     0.430885     0.842861     0.631649     0.487407  -0.00109199      0.24247    -0.231094    -0.190021     0.166296     0.331421     0.152373    0.0415228    0.0740594    0.0351047    0.0177738     0.134488     -0.11787    -0.164727    -0.430048     0.133505     0.441453     0.125535     0.458532      1.04016      1.34876     0.532042      1.20116     0.668213     0.331848     0.621146     0.488429     0.138855     0.271541    -0.120562     0.304507    -0.134974     0.209892     0.312361    0.0709382    0.0300829    0.0389298  -0.00795472    0.0983243   -0.0326571   -0.0344483    -0.211851    -0.553928      0.57389     0.503275   0.00055873    -0.211058     0.488411     0.988373     0.957574      1.44101     0.671396      0.58203     0.375372     0.802451   -0.0597697    0.0294714    -0.200089     0.229941    -0.368906     0.426913     0.407341    0.0640637   -0.0101908    0.0124585    0.0097588     0.106024    0.0447564    -0.104335   -0.0491281    0.0920484  -0.00865824    0.0385757   -0.0466905     0.142375     0.508915     0.589806     0.745735     0.651086     0.374179    -0.079713    -0.459118    -0.168836    -0.575079    -0.236814    -0.144648   -0.0788683    -0.301386     0.141494     0.341727     0.164509  -0.00796716   -0.0154278   -0.0340661   -0.0116622   -0.0831617    -0.203778   -0.0829143    -0.370432    -0.553105    -0.883436    -0.394791    -0.200757    -0.390351    -0.213306    -0.562417    -0.374916    0.0802008     -0.11775    -0.247431    0.0715162   -0.0243701      0.33316     0.046052    -0.639805     -0.68875    -0.343233    0.0411968    0.0228051     0.028236   0.00872102    0.0302941    0.0092782    -0.132819    -0.371122    -0.102125    -0.367231    -0.485428     0.240933    -0.684071      -0.7591    -0.345052   -0.0252553    -0.631076    -0.200663   -0.0644446   -0.0662446   0.00865122     0.346052    -0.031533     0.214413     0.215258    -0.517747     -1.27405    -0.537296   -0.0710585  -0.00733706    0.0410828   -0.0152502  -0.00706441   -0.0293781   -0.0416722     -0.69531   -0.0601937    -0.324062    -0.482183    -0.395672    -0.557734     -1.08344     -1.03741     -1.27269    -0.527248   -0.0222807    -0.928929    -0.389226    -0.494268  -0.00418452    -0.503896    -0.623334    -0.352608    0.0128146      -0.8361    -0.302693    0.0708302     0.051468   -0.0494965   -0.0370612    0.0136936    0.0456352    -0.116008    -0.312149    -0.442974    -0.787916    -0.422016    -0.776234    -0.451018     0.350261      -1.2489    -0.998759    -0.500845    -0.431549    -0.471426    -0.584403    -0.975972      0.38522     0.183737    -0.124474    -0.454873   0.00595923     0.134868     0.373387    0.0541892    0.0395515    0.0274979    0.0348405    0.0127437    0.0173197    -0.141288    -0.427406    -0.726879    -0.291827    -0.201123    -0.993146    -0.656172    -0.223517     -1.24797     -0.68402    -0.591748     -1.02359     0.119155    -0.207956    -0.538214    -0.359195     0.255124    0.0452433    -0.615308    -0.418679     0.186328     0.617087    0.0362806     0.149989   0.00236068    0.0163794   -0.0399375    -0.105012    -0.232259    -0.384385    -0.581789     -0.69695    -0.198351    -0.135986     0.124735    -0.231246    -0.726061    -0.389699    -0.256395    -0.794837    -0.440069    -0.483937    -0.389444    0.0849063     0.457694      0.50617     0.516725     0.187755      0.29915      0.69345    0.0562374    0.0628598     -0.10265   -0.0202478    0.0160555   -0.0566274    -0.161824   -0.0138703    -0.106856    -0.409587    -0.571956    -0.662371    -0.766068    -0.312302    -0.115689     -0.64124     -1.19687     -1.15775    -0.549156    -0.621652     0.856242    -0.351019    -0.734697    -0.851247     0.506138      0.37541      0.54313     0.320332     0.269002     0.045885    0.0633944    -0.010522    -0.019717   -0.0531062    -0.078172     0.514439    -0.106364    -0.702795    -0.788863    -0.617724     -1.29338     0.276117    -0.310784    -0.860058     -1.87739    -0.491232    -0.110587    -0.139617     0.495876    -0.615448   -0.0194389   -0.0990715     0.402335     0.731685     0.519524   -0.0180476     0.319087    0.0493932    0.0615412    0.0374757   -0.0377264    0.0188461    0.0728989     0.273378     0.206801    0.0684524    -0.655459    -0.263618    -0.363227     0.355063    -0.763388    -0.318312   -0.0994708     0.171301   -0.0241216    -0.787071     0.573588     0.173811     0.105761     0.449085     0.600965     0.899141     0.519398     0.289623     0.288075     0.130694  -0.00593049   -0.0335102   -0.0514859    0.0359675    0.0884705     0.492349     0.498755      0.48107     0.493717     0.750541   -0.0725895     0.206535   -0.0109531     0.693878     0.965205     0.253496     0.871109    -0.200332     0.336786   -0.0225301   -0.0362395   -0.0842437    0.0891213     0.661718     0.578813   -0.0670979    0.0486144    0.0171363  -0.00958224    0.0142596   -0.0260073     0.087053     0.146011     0.533139     0.501084     0.648376      1.20119       1.0987     0.353763      1.05814      1.00172     0.643841      1.25982     0.424994     0.308269    -0.178949    0.0438065   -0.0694408      0.32491     0.204004   -0.0472523     0.205969     0.366048   -0.0580646    0.0712418    0.0421207   -0.0438501    0.0227116   0.00809801    0.0635684     0.136373     0.340146     0.378905     0.674219     0.345028     0.326334     0.826774   -0.0764119    -0.192618     0.138396    -0.306098     0.259154     0.545084     0.272246     0.112458    -0.140079     0.155086    -0.161125    -0.516131   -0.0310728     0.134983    -0.071687    0.0637544   -0.0174618   -0.0192824   -0.0217588    0.0242504   -0.0143184     0.167093     0.307539      0.27409      0.51901     0.141167    -0.291423     0.436474      0.21102      0.90263     0.685828      0.19471    -0.413045    -0.299887     0.401785    -0.695163     -0.86291     -0.47388    -0.545155    -0.198815     0.126596    0.0296765     -0.19684   -0.0232706   0.00673819   -0.0205854  -0.00697922    0.0277649   0.00652761     0.157239      0.26203     0.438999     0.624287     0.397929     0.493339     0.460949    -0.385842    -0.306068    -0.291672     0.225806     0.308083      0.39222     0.473784     0.748196   -0.0417555    -0.389338    0.0399332    0.0724904     0.182364    -0.103329   -0.0521433   -0.0299662    0.0453646   -0.0188005    0.0331813   0.00429531   -0.0180932   0.00449646    0.0898698     0.331643     0.686482     0.309851     0.434097     0.855886     0.400453     0.484035     0.487183     0.622604     0.195136     0.835544     0.581546     0.332993     0.377848     0.340768  -0.00897442     -0.19083   -0.0555349   -0.0255346    0.0368172       0.1464   -0.0481137    0.0328605    0.0264506    0.0104817   -0.0280719    0.0126431   -0.0350563    0.0579415     0.065128    0.0132888     0.195546     0.144411     0.189686    0.0903593     0.374366     0.472925     0.407699     0.670172     0.448223    -0.213624   -0.0406803     0.264992    0.0734261    0.0294405    0.0251081  -0.00102302   -0.0176336   0.00123002    0.0429538  -0.00530351   -0.0255924   -0.0012452   0.00267186    0.0289549    0.0153037   0.00524779  -0.00434286   -0.0670767    0.0310344   -0.0067104    0.0496203   0.00293203  -0.00727811     0.035512    0.0143424    -0.108257    -0.019985   -0.0232806   -0.0813859    0.0484416   0.00866215     0.016172  -0.00866809     0.058695   -0.0864228   -0.0403065  -0.00514406   -0.0228328
   0.0090963   -0.0164177  -0.00661306    0.0210583   0.00893929   -0.0698607   -0.0298892  -0.00314477   -0.0131306   -0.0683868    0.0442015  -0.00656596   0.00163949    0.0555241   -0.0256101   -0.0295873    0.0431741    0.0251795   -0.0220743   -0.0115411   0.00985684    0.0246134     0.016014    -0.016356     0.016849   -0.0140049    0.0107347    0.0285837  -0.00127241   -0.0163778   0.00495264    0.0402423  8.77199e-05   -0.0163897    0.0245648    0.0129058   -0.0130906  -0.00280897  -0.00243925   -0.0329252   -0.0364035    0.0367154   -0.0410597   0.00613383  -0.00681573    0.0296603    0.0228327   -0.0300632    0.0909946    0.0211423    0.0618286    0.0112021   -0.0295362    -0.061178   -0.0467853    0.0638352    0.0239037    0.0139034  0.000432234   -0.0269751  -0.00670208     0.030046     0.107216   -0.0402665   0.00460509    -0.035736    0.0429872    0.0418786  -0.00162163     0.214221     0.212951     0.044759    0.0511192     0.245034     0.143659     0.103065     0.139483     0.074976    0.0246546    0.0182915   0.00184443    0.0012059    0.0131932   0.00717304   -0.0112956   -0.0657729   -0.0120876     0.032007   0.00652269     0.057049    0.0451821    0.0103773    -0.129193    -0.107444   -0.0490712     0.149511      0.10174     0.155577      0.79576      1.05907       1.0098     0.752684    0.0248157    -0.172465      0.21248     0.247969     0.116089    0.0250226    0.0142603    0.0229878   0.00136779    0.0134804    0.0418988   0.00620289    -0.025647    0.0167364    0.0703499     0.193002     0.211988     0.173033      0.45745     0.178336    0.0380955   -0.0515793      0.14806     0.558938     0.603223     0.945165     0.682832    -0.160978     -1.09326    -0.357091     -0.43799   -0.0882898  -0.00997619   -0.0699669     0.155055    -0.030574    0.0163682   -0.0243265   -0.0346144   -0.0103964    0.0408839    0.0285599      0.31232     0.406782     0.452759      0.37795     0.234772    0.0515983      0.23997    -0.678527    -0.167749    0.0463846    -0.363763    -0.505875    -0.404237     0.295685    -0.209375     -0.40463    -0.443237     0.264694     0.297485     0.344561     0.233928    0.0418404    0.0129298    0.0320997  -0.00816106    0.0168781   -0.0215616    0.0954894     0.335888     0.621996      0.56043     0.607653    0.0820007     0.180797   -0.0303088    -0.651933    -0.612437    -0.181802    -0.610098    -0.696454     -1.11974    -0.551095 -0.000678992     0.167072    -0.105312     0.128048     0.120065    0.0688625    -0.135676    -0.108113   -0.0393017    0.0488972   -0.0109447  -0.00191461    0.0101691    0.0445325     0.534908     0.918041      0.32992     0.405847   -0.0199428      0.61583    -0.298993    -0.722141    -0.282064     0.134645     0.534427    -0.132989    -0.402183    -0.624287    -0.311942   -0.0661875    -0.113085    -0.179737    -0.291701     -0.59633    -0.456967     -0.45648  -0.00776561  -0.00838679   -0.0593048   -0.0196665  -0.00739848     0.174711     0.642377     0.649202     0.162626    0.0336961    -0.580216    -0.265873    -0.244088     -0.28682     0.150864     0.740148     0.616237   -0.0260571      -0.8273     0.041646     0.203671     0.205092     0.266625     0.397248     0.294807    -0.997799    -0.723449    -0.259225   -0.0375204   -0.0484177    0.0160399    0.0783206     0.118425     0.177626     0.331007     0.306662     0.538394     0.129496  -0.00781117   -0.0597968  -0.00500866  -0.00130159    -0.131081     0.244632     0.684629    -0.606499    -0.450717    0.0652324    0.0295848     0.692595     0.360961   -0.0184785    0.0264849    -0.610927     -0.69288     -0.23935   -0.0300839   -0.0255672  -0.00945343   -0.0466368   -0.0543016     0.272798     0.193642    -0.129096    -0.169905   -0.0188027    -0.011642    -0.283211    -0.594623    -0.377713    -0.197342    -0.424536    -0.286513    -0.573257     0.302115     0.313811     0.204405     0.342495     0.244627      -0.1809    -0.154637     -0.44005    -0.643461    -0.299598   -0.0574674    0.0317755    0.0104265   -0.0173703    0.0899559      0.23216     0.140813    -0.203563    -0.663429    -0.678746     -0.52706    -0.126571  -0.00147782    -0.516185    -0.973858    -0.884188    0.0360604    0.0738069      1.05576      1.26869     0.219418    -0.226971      0.35411   -0.0972695     -0.49962    -0.558214    -0.508627    -0.250233    0.0127167   -0.0459262   -0.0359496    0.0422605   -0.0299139   -0.0909343    -0.123696    -0.211953    -0.334641    -0.465484    -0.755781    -0.765735    0.0567781    -0.173239    -0.426059    -0.178644     0.177286     0.752638      1.10886     0.613656     0.656984    -0.422355     0.125605    -0.606777    -0.656804     -0.14533    -0.345107    -0.132209   -0.0689863    0.0281546   -0.0506871    0.0233055    0.0545327    -0.061191    -0.181329    -0.163354    0.0792973    -0.586255    -0.332738    -0.351525     0.233987    0.0552162     0.225304     0.528874     0.452352     0.232581     0.177722     0.321243     0.490318     0.146879   -0.0473898    -0.131067    -0.450991    -0.313654    -0.132525    -0.228622   -0.0497814    0.0251125   -0.0419721    0.0767616   0.00751839    0.0905035    0.0149056   -0.0177948    -0.173054    -0.370886      0.36621     0.720005    -0.365437    -0.333973    0.0593422    -0.520647    -0.212322     0.191562   -0.0902891     0.847686     -0.47071      0.27926    0.0336826    -0.108486    -0.794568    -0.545912     -0.31915   -0.0897582    -0.120127  -0.00808432    0.0545546   0.00801008    0.0507586   -0.0331613     0.132925    -0.323899    -0.787092    -0.217013     0.162524    -0.205764    -0.411294      -0.6393    -0.769153    -0.161758     0.307285     0.733489     0.257691     0.147521     0.561482     0.433095     0.571271     0.161659   -0.0899339   -0.0823179     -0.27446   -0.0365723   -0.0419115    0.0433382   -0.0451965   0.00737826     0.104269     0.111392   0.00724909    -0.409079     -0.64075    -0.113504    0.0652614   0.00352992     -0.69507    -0.169422    -0.350663     0.133569     0.654993     0.787423     0.415249     0.833151     0.440556     0.657102     0.272093     0.652388     0.061969    -0.355992    -0.276511    -0.182763    -0.133622   -0.0255352    0.0656087   -0.0147276     0.102212     0.399649    0.0835802    -0.249443    -0.747881    -0.204774    -0.461922    -0.955963    -0.849796     0.777941     0.168107     0.522867     0.427846    -0.428882     0.678127     0.506715     0.279582    0.0736541    0.0987584     0.587853    -0.127437    -0.652561    -0.854642    -0.479424   -0.0854668    0.0651776   -0.0199188    -0.026409     0.207663      0.39094   -0.0499439    -0.249544    -0.388693     -0.47181    -0.359771   -0.0602586    -0.175985    0.0313115    -0.266322   -0.0549446    -0.134703      0.35622     0.003356     0.356042     0.596283    -0.251124    0.0702672     0.391077    0.0815838    -0.480806     -0.60903    -0.248258   -0.0404805    0.0512605   0.00842978   0.00737959      0.14174     0.268309    -0.418905     0.505652     0.185752    -0.502238    -0.422417    -0.540812    -0.589302    -0.840198    -0.559021    -0.106006     0.834484    -0.152081     0.339835     0.655896     0.919839    -0.417095     0.533959     0.107905    -0.304432    -0.533767    -0.277951   -0.0384316   -0.0527528    0.0255386    0.0289435    0.0624378   -0.0222688     0.176653    -0.294064    -0.138462     0.362121     0.410853   -0.0170474   -0.0331484    -0.543405    -0.459949   -0.0848102    0.0674382     0.754447     -0.13292      1.03461     0.270814     0.250767    -0.451164     0.152325     0.574162    -0.196333    -0.339148    -0.334416    -0.136866   -0.0329992       0.0426    0.0457285   -0.0240958   -0.0593981     0.232513    -0.299141    0.0837604    -0.314959    0.0890181    -0.256889    -0.592773    -0.367218    -0.115999     0.025125     0.121882     0.304141    -0.113182     0.520898     0.109563    -0.113765  -0.00494983     0.179806   -0.0903965    -0.426226    -0.532603    -0.313625    -0.179921    0.0182489  -0.00510484   0.00136604    0.0219614  0.000313162     0.170881   -0.0449136     0.153669     0.492722     0.118208    -0.235323     -0.73019    -0.686806   -0.0284085    -0.843846    -0.359855     0.380012     0.529822     0.296759     0.284179   -0.0609659    0.0826641    -0.319263   -0.0630672    -0.283588    -0.232901    -0.159609    -0.049874   0.00934479    0.0161903   -0.0190273    0.0205485    0.0408417     0.154251   -0.0285373     0.350196     0.200497     0.533618   -0.0735233     0.200966     0.532713     0.514857    -0.683198    0.0769844    -0.235677   -0.0301298    0.0776853     0.253368     0.256519     -0.14484  -0.00230672   -0.0633489    -0.199724    -0.304374    -0.112932  -0.00427522   -0.0170911   0.00568829   -0.0543266   -0.0142045    0.0484157     0.128735     0.418859      0.58757     0.795952     0.092528    -0.422073     0.242996     0.377877     0.174543    -0.104852     0.350746     0.371723    -0.317157   -0.0439507     0.126747    -0.253424     -0.60677    -0.176047      0.24384    0.0241717     -0.14054    -0.133347   -0.0107852   0.00950444    0.0208601    -0.032327   -0.0170605   -0.0122587   -0.0843967  -0.00023913     0.226595     0.460085     0.581672     0.606294     0.589567     0.200787    0.0388318    0.0204905     0.294764     0.338963    -0.231948    -0.454713    -0.202625    -0.362694    -0.336675     -0.11556     0.118238    0.0895608    0.0324094   -0.0551777    0.0165724  5.38557e-05   -0.0431006    0.0931355    0.0414558   -0.0410706  -0.00973242   -0.0256555     0.117298     0.177965     0.112391     0.254808     0.250367     0.275719     0.544591     0.392571     0.542246     0.443702     0.145575  -0.00182187    0.0679844    0.0223064   -0.0258592     -0.13521   -0.0304243    0.0134845   -0.0129572    0.0067687    0.0130161    0.0153137    0.0408962    0.0080207    0.0480603    0.0229972   0.00951407   -0.0538188    0.0228616    0.0153612   -0.0198759   -0.0148505   -0.0236946    0.0153937   -0.0169282    0.0232516   -0.0267089 -0.000280618   -0.0342404   -0.0287577   0.00697945   -0.0322035     -0.03709   -0.0267926   -0.0320012    0.0388594   0.00221165   0.00537661    0.0237702     0.024233   -0.0712087
 -0.00268588   -0.0560863    0.0119542    -0.013957   -0.0146578    0.0108382   -0.0303696    0.0211428    0.0333433   -0.0119962   -0.0165493   -0.0600404   -0.0455469   -0.0326846   0.00189943    0.0493221   0.00527359   -0.0415688   -0.0371263    0.0143354   -0.0090365    0.0165153   -0.0152161   -0.0318988   0.00357612    0.0174058   -0.0476939    0.0857647   0.00388734   -0.0642385    0.0281803   -0.0339923   -0.0388724   -0.0304392    0.0146811   0.00415483   -0.0317154   0.00988291   -0.0468684    0.0149552   -0.0205854   -0.0186749   -0.0397008   -0.0240503    0.0207702 -0.000708729   -0.0953039   -0.0192657   -0.0506088   -0.0252947 -0.000724033    0.0166934  -0.00977926  -0.00829373   -0.0166089   -0.0693953    0.0525621   -0.0197005   0.00924155    0.0172394    0.0190535   -0.0628283   -0.0228039   0.00510489   -0.0114045    -0.016307    0.0526036   -0.0669176     0.190501     0.206896    0.0891495    -0.022307    0.0340016    -0.101691    -0.167166    -0.147448    -0.129963    -0.116359    -0.134923   -0.0717107    -0.010018    0.0628116   -0.0108445   -0.0167709   -0.0255713   -0.0607128     0.032758    0.0669558  -0.00731737    0.0391093   -0.0844367    -0.105804   0.00507211    0.0905309    0.0846887     0.547683     0.897822     0.952143     0.656349     0.385559     0.108162     -0.17954    -0.466084    -0.266939    -0.216976    -0.461312    -0.325143     -0.13782    -0.054438    0.0417198   0.00440645  -0.00675782  0.000323533    0.0192259    0.0106113  0.000125324  -0.00831938    0.0277909    -0.096455    -0.147501    0.0231473     0.232691    -0.170791   -0.0877771     0.551619     0.175483     -0.11455     0.148311    -0.121658     0.545784     0.618928     -0.25389     0.504378    -0.125991   -0.0953874    -0.292683    -0.216066   -0.0767751   -0.0219486   -0.0230948    0.0282647   0.00513665  -0.00292339  -0.00721852    -0.097568   -0.0790985    -0.103821   -0.0106452     0.111575    -0.291751    -0.288488     0.282519     0.155753    -0.111283    -0.230066    -0.377046     0.197324    -0.083257    0.0478335    -0.292203    -0.320746     0.141143    0.0157065    -0.211175    -0.504023    -0.242229   -0.0821045    0.0276711   0.00329882   -0.0303379   0.00602533   -0.0124682    -0.163111    -0.185611    -0.192745     0.423109    -0.033368    -0.114592     0.353837     0.121178     0.435321   0.00360893     0.311386      0.24006     0.145531    0.0140277   0.00259237    -0.074203    -0.156977     0.541366    0.0423385     -0.24514    -0.416169    -0.338955    -0.170107   -0.0672585   0.00623013    0.0178669     0.027927   -0.0128746    -0.312571    -0.156337    0.0829835      0.17384    -0.235561    -0.335007   -0.0647825    -0.469628    -0.464089     0.867313     0.661867     0.200114     0.224938     0.442425    0.0225688     0.561692    -0.110477     0.207647    0.0684188    -0.430601    -0.741847    -0.329033     -0.09495  -0.00718996   -0.0205679     0.030909   -0.0234053   -0.0658205    -0.415315   0.00154894    -0.403954    -0.509478    -0.209122    -0.155619    -0.213175   -0.0578986     0.471556   -0.0523945      0.95502     0.687018     0.314334     0.390258    -0.107842     0.224324     0.086281    -0.189889     0.628867     0.272012    -0.292243    0.0556587   -0.0674226    0.0289852    0.0126902    0.0184293    0.0349059     -0.10323    -0.481769    -0.227942    0.0313401    -0.527876    -0.484734    -0.154111   -0.0518401    0.0138375  -0.00488726    -0.915723    -0.358984     0.159736       1.2996     0.671753     0.585098     0.549346    -0.194915     0.532846     0.684348   -0.0226035     0.134148     0.150063   -0.0669137    0.0201405   -0.0148867   -0.0043005    0.0616766   -0.0454152    -0.486034    -0.289531    -0.120689    -0.311695     0.245012     0.689551     0.264134     0.303152    -0.675873     0.109148     -1.08734     0.172302      0.59746      1.22757    -0.173266    -0.312047     0.759365       0.8685     0.188647    -0.364333     0.399063     0.154068  -0.00571676   -0.0514326  -0.00321405   -0.0206078    0.0670335    -0.012548    -0.388897    -0.472459   -0.0299272     0.101348    -0.227203     0.350494    -0.448068    -0.259694    -0.629048    -0.783141     -1.68788    -0.796415      0.28872     0.328618     0.574264    -0.344525    -0.160263    0.0971594    -0.184011    -0.491092     -0.16829    -0.192296   -0.0118086    0.0100092   -0.0192677   -0.0356171      0.04701    0.0286489    -0.499216    -0.224119     0.113287    -0.631587     -0.18687    0.0804389    -0.459168    -0.635316    -0.334829     -1.10141     -1.69403    -0.703651    -0.188183    -0.474241     0.830113    -0.181602    -0.603263    -0.386304    -0.312533    -0.647064     0.279104  -0.00340381    -0.129145   -0.0191021    -0.029867   -0.0213212     0.061925    0.0543486    -0.390503    -0.220914    -0.216806   -0.0124184    -0.475017    -0.109895     -0.28814     -1.12546     -1.02384    -0.601662     -0.73372    -0.876812    -0.351665    -0.296251    -0.520503    -0.473227     -1.05939    -0.548701    -0.351539    -0.229137     0.289948     0.124337    0.0284214    0.0102656   -0.0128806 -0.000457043    0.0226257   -0.0703076    0.0502477     0.170534     0.339529      0.48698    -0.492046     -1.42461    -0.824338    -0.849704   -0.0258535    -0.929707    -0.754627     -0.40646    -0.393446    0.0105049    -0.526464   -0.0612633   0.00653992    -0.251015   -0.0301854     0.165324    0.0908234     0.006856    0.0362937  -0.00903913   -0.0493673 -6.69398e-05    0.0366528    0.0987447     0.337215     0.523169     0.523156    -0.245387    -0.953192     -1.18206    -0.595927     -1.09386    -0.460866     -1.19609    -0.921846    -0.763271     -1.54282    -0.284754    -0.494905    -0.093361     0.373111     0.113428    -0.138538  0.000180172   -0.0546124    -0.238523    0.0992753   -0.0269016   -0.0312864    -0.075113    -0.109909    0.0919814     0.490216     0.685479     0.527923      0.28916     0.114769    -0.431571    -0.417738     -0.58585    -0.321366    -0.737519    -0.402101    -0.926713    -0.403486    0.0973747     0.421847       1.2491     0.955779     0.176082    -0.405887    -0.588144    -0.168188    -0.210784    0.0892338   0.00826762 -0.000532103   -0.0573666   -0.0646507    0.0953586     0.500558     0.922729      1.22521      1.21426     0.483502    -0.106627    -0.142878    -0.718534    -0.146485     -1.20518    -0.469292     0.398954     0.965795      1.08381      1.13839     0.164675    -0.266548     0.197439     0.221275     0.104831     0.124568     0.272177     0.141299   -0.0102262   0.00358865    0.0236234   -0.0747276     0.129273     0.718242     0.958866     0.546708     0.758726     0.803151     0.260639     0.574191     0.829453     0.430568    -0.720264    -0.318439     0.522198     0.782772     0.486674     0.923572     0.305668    -0.475145     0.254951     0.238579     0.184957     0.390027      0.14213     0.144557    0.0861264    -0.100175   -0.0385904   -0.0128995     0.209657     0.336255     0.504304     0.631427     0.821432      1.26985     0.827262      1.23653      1.33765     0.985882     0.175932     0.557371     0.544895    0.0905336   -0.0140495     0.184645     0.356832    0.0944276      0.62395     0.433827   -0.0307959     0.162474     0.168484    0.0295481    0.0329269    0.0677673    0.0656508    0.0214031    0.0739413   -0.0429847    0.0774496   -0.0134365    -0.189435     0.659075     0.839176      1.15465     0.604847     0.364994     0.315087    -0.322271    -0.273399     -0.39956    0.0344787   -0.0767253     0.307827    -0.109264     0.469931     0.420943   -0.0519009     0.167504    0.0065861    0.0295855    0.0632631    0.0451667   -0.0775748   -0.0364881   -0.0154923    -0.172978   -0.0217401    -0.266568    -0.460254     0.373131     0.145504     0.418916     0.437562      0.47743     0.661059      0.22603    -0.282613     0.109275     0.209234     -0.23299     0.457072      0.14121      0.43606     0.452788     0.436851     0.312069    0.0722603  -0.00199029   -0.0175799    0.0974815   0.00966474   -0.0598807   -0.0612981    -0.165906     0.225614     0.119969     -0.52377    -0.265805     0.457753     0.372358   -0.0336868     0.101624     0.450876    0.0189561    0.0936579     0.198291     0.256506     0.531835     0.108493     0.621407     0.540736     0.401027     0.205341     0.197067     0.100048   0.00188744    0.0113778    0.0174335   -0.0831178  -0.00628144   -0.0680617    0.0672915      0.19803     0.945833     0.149182    -0.312542     0.352772     0.123224     0.493785   -0.0705755     0.253555    -0.205488    -0.269118    -0.405311     0.165865     0.303343   -0.0100875     0.224749    0.0546527     0.116683    -0.016224    0.0325645    0.0908766    0.0259717    0.0709307   -0.0025696  -0.00316972    0.0122226    0.0440925     0.213894     0.140649     0.409724     0.558446   -0.0806682    0.0830243    -0.534565    -0.257938    0.0809665    -0.441998    -0.124388   -0.0474122  0.000326916     0.608939   -0.0956856    -0.468887   -0.0306552    -0.101136   -0.0891985   -0.0456288     0.072547    0.0824748    0.0502005   -0.0576556    -0.026222    0.0324239   -0.0108143     0.028925     0.226154     0.201345   -0.0680347    -0.119983   0.00598208    0.0900591    -0.206348    0.0635988   0.00916223    -0.323123    -0.364495    -0.506486    -0.137481    -0.244333    -0.742992    -0.709774    -0.195976   -0.0972322   -0.0191065   -0.0636176   -0.0262742     0.046827    0.0270126   -0.0263658    0.0534567      0.01735    0.0125026   -0.0295103    0.0208026    0.0179249  -0.00364033    0.0308661    0.0533815    0.0296502   -0.0625407    -0.100207    -0.146165   0.00824146     0.226273     0.512605     0.260489   -0.0938921    0.0822885     0.132827    0.0944405    0.0875423     0.100949   -0.0593273    0.0671953   -0.0388193    0.0533562   -0.0169525    0.0064191   0.00865762    0.0176457  -0.00649695   -0.0301313     0.044293    0.0221911    0.0599902     0.101266    0.0628558     0.014849    0.0341439   0.00281163   -0.0463414     0.117026    0.0170362    0.0518321    0.0948829    0.0290411    0.0738871    0.0564362   -0.0131397     0.015465   -0.0582311    0.0444383    0.0423479   -0.0721031    0.0696414
   0.0618929  -0.00753022  0.000771434    0.0190278    0.0565546   -0.0157255    0.0167591   -0.0380394    0.0210561   0.00695041   0.00644137   -0.0708386      0.01411   -0.0166567  -0.00793717    0.0347417   -0.0449827   -0.0231113   -0.0204221   -0.0288854   -0.0157303   -0.0553207   -0.0907479   -0.0172852    0.0353229    0.0223168   -0.0494627 -0.000192697    0.0222866    0.0296158  -0.00812209   0.00987006  -0.00487542   -0.0225294    0.0137499   -0.0227703   -0.0184007   0.00287241    0.0100922    0.0103067    0.0730112    0.0056241    -0.034545    0.0117037   -0.0599919   -0.0115919    0.0449324   0.00791527    0.0221982   0.00957388   0.00800217    0.0138623   -0.0497057    0.0239794     0.028965   -0.0580603   -0.0114972   -0.0328227   -0.0871872    0.0549217   0.00201295    0.0457011   -0.0135527    0.0359059    0.0503206    0.0406583     0.103193     0.155876   -0.0803639    -0.245476     -0.14559    -0.292836    -0.297287  -0.00632239     0.162488     0.266396     0.143526     0.201696    0.0341573     0.046399    0.0747468    0.0474316   -0.0186777  -0.00464066    0.0403954  -0.00272604    0.0228545   -0.0146218   -0.0227578    0.0112323    0.0369086    0.0406481    0.0151761    -0.275263   -0.0147647     0.374781     0.406929     0.444305     0.491204    0.0835334   -0.0346818    -0.137682    -0.475721    -0.152807     0.309861     0.300228     0.105173  -0.00433591    0.0574489   0.00411678    -0.042849    0.0100597   -0.0196256    0.0349852    0.0206352   0.00712904    0.0292589    0.0753787     0.117907     0.155661      0.33809    -0.247319    0.0895348     0.844323        0.815     0.549834     0.131417    -0.103493    -0.121796   -0.0393553    0.0485504    0.0216516     0.213674     0.207115     0.241611   0.00364774   -0.0372322  -0.00691675    0.0120567    0.0343441    0.0587844 -0.000755088   -0.0420279   -0.0191583    0.0887761    0.0462788     0.331076     0.133742     0.173948    0.0213135   -0.0469356    0.0903673     0.275298    -0.324945    -0.381999     0.349651     0.138042    -0.802078     0.113451    -0.218711    -0.714203    -0.726853    -0.702552   -0.0901039     0.143935    0.0171492    0.0265033   0.00589936   -0.0203771   -0.0202001   -0.0314218    0.0596935     0.163757    0.0433998     0.462141    -0.201763    0.0436309      0.30369   -0.0160021    0.0347301     0.263605     0.116337    -0.197634    -0.567836    -0.454671     -1.08865    -0.650945    0.0332622    0.0739205     0.249659    -0.194973     0.333827     0.213882   -0.0801497  -0.00601977   0.00590022    0.0164795    0.0335999   -0.0952087   -0.0200354   -0.0290349     0.127064     0.110765     0.319526    -0.234125      0.16224    -0.372004   -0.0774029    -0.520205     0.641995   0.00446199    -0.768098    -0.661683    -0.592233     0.289654     0.216282    -0.333179   -0.0635615     0.360058      0.64586     0.644368    0.0970591    -0.083014    0.0453882   -0.0124665    0.0373639    0.0345099   -0.0155201   -0.0555084    0.0344073     0.175754     0.145086     0.273975     0.254106    0.0963359    -0.123499      0.60835     0.561119    -0.134509    -0.228088    -0.575623     0.124218    -0.477188    -0.769713    -0.632516     0.115902     0.536635    0.0207453     0.708542     0.304327     -0.10227   -0.0215882    -0.021124  -0.00639429    0.0308885    0.0710122   -0.0765832     0.154559    -0.109973    -0.203783    -0.026816    -0.452237    -0.554798    -0.438045      0.19987   -0.0261884    0.0452534    -0.339575    -0.212507     0.579023     0.278646      0.30437    -0.205706     0.248494    -0.458021     0.579645     0.321312    -0.248533    -0.356671    0.0127538   -0.0265374    0.0487592    0.0522375    0.0338922   0.00992617    -0.322536    -0.777228     -0.31419    -0.612655    -0.449547    -0.495353     0.393774     0.717757      1.36846      0.47002     -0.74901    -0.365294    0.0132173    -0.028917    -0.252788     0.126942    -0.166686    -0.383628     0.343242   -0.0792747    -0.432801    -0.115855    -0.024174  -0.00575365    0.0380433     0.103585     0.209794   -0.0564307    -0.892581    -0.814031    -0.224465    0.0470856      1.02974     0.572491     0.805266      1.10945    -0.138208    -0.753616     -0.41397    -0.873628    -0.713691     0.322686   -0.0278858   -0.0354538   -0.0661932      -0.8407    -0.334884    -0.408951    -0.643376   -0.0993192    0.0347549    0.0552556    0.0211259     0.110295    0.0764951    -0.217835     -0.32676     0.551137     0.744546     0.847777       1.2258     0.409703     0.848997     0.400502    -0.221755    -0.706953    -0.285172     0.173209    -0.314029    0.0109801     -1.00628  -0.00370009    -0.255098    -0.145354   -0.0123523   -0.0323219    -0.524295    -0.317425   -0.0432399   0.00593726   -0.0163165     0.108727    -0.138261   -0.0933654    0.0440167      1.19371     0.843667     0.139965     0.579446     0.612543     0.483092     0.585438    -0.465995     -1.35709   -0.0226174    -0.292054   -0.0229963     0.311187    -0.201154    -0.500418    -0.289551     0.262859     0.568679     0.568596    -0.275658    -0.167721    -0.157792    0.0377564    0.0070362    0.0277297    -0.288146    -0.421774       0.2971    0.0164382     0.228409     0.433174    0.0600867   -0.0770416     0.352833     0.596599     -0.41908    -0.477822    -0.341601    -0.169511    0.0505256     0.253924     0.370082  -0.00221708     -0.23746     0.167102     0.777072     0.183702   -0.0885728   -0.0728342   -0.0435627    0.0057374  -0.00714067 -0.000474606     -0.22219    -0.300681   -0.0250534     0.248823     0.974461     0.486096    -0.280602     -0.30535    -0.210731    -0.254318     -1.31033     -0.46676    -0.593747     0.226603     0.507491   -0.0806898    -0.497977       0.3837     0.219253     0.850321     0.271987    -0.267593   -0.0797462   -0.0507187   -0.0528312    -0.034533   0.00802809    0.0267033    0.0732991    -0.189878    -0.327641     0.546906      1.24843     0.858123     0.248446     0.437937     0.335963  -0.00105382    -0.338791   -0.0239402    -0.177553    -0.468038    -0.372463     0.011229     0.527113     0.210462     0.176209     0.414163    -0.239622    -0.395804    -0.446164     -0.36807   -0.0256107    -0.044357   -0.0522034  -0.00460528     0.177556    0.0820397     0.210525   -0.0982888      1.22395     0.701572     0.120644      0.25234    -0.233381    -0.675521    -0.217758     0.637452    -0.497501      -1.3049    -0.358096     0.404044     0.376629   0.00165121     0.224463    0.0299202     0.183828    -0.157991    -0.274898     -0.21267   -0.0572438    0.0213004  -0.00157741   -0.0901895    0.0638693   -0.0519229   -0.0289587    -0.286384       0.7257      1.54785      0.75557     0.203933     0.305072      0.43769    0.0639948    -0.193961   -0.0201202    -0.165255    -0.534901    -0.155271   0.00657423    -0.568559     0.236741     -0.12321   -0.0249895    -0.495796    -0.196083   -0.0722767   -0.0480886   -0.0614216   -0.0590908   -0.0141953     0.198012    0.0238579  -0.00617641    -0.499313    -0.468509       0.5141     0.214334     0.694724     0.900389     0.831349     0.194589     0.531927    -0.254445     0.552511     0.527326    -0.342596     0.134999     0.110151     0.210649    -0.323498    -0.295925    -0.455775    -0.247715   -0.0418728   -0.0250802   -0.0310367   -0.0255945   -0.0422511     0.109685   -0.0335568   -0.0325806    -0.048402    -0.194901    0.0763745     0.116782     0.376732  -0.00261721     0.681254      0.52899     0.137974    -0.143001     0.484597    -0.721742    0.0607109   -0.0856955    -0.183079    0.0724906   -0.0181964     0.288894     -0.42535    -0.259983   -0.0283543   0.00670765    0.0196351   -0.0197683  0.000493084    0.0106217    -0.553089     0.147691    -0.222851    -0.520159    -0.269353    -0.172851    -0.783455     0.197073     0.649574    -0.117197     -0.79846     -0.48649     0.359682    -0.692511  -0.00246509     0.114123    -0.314789    -0.697869    -0.180793   -0.0989271    -0.457092    -0.142471    0.0748398    0.0241904   -0.0256134    0.0469295    0.0253932   -0.0422611    -0.423831    -0.347333    -0.299731   -0.0951888     0.265244    -0.408243    -0.447527    -0.593043      0.38586     0.657623     0.261568     0.241165    -0.319641    -0.273709    -0.412796    -0.393428     0.266474    -0.241067    -0.141723    0.0197574    -0.383546    -0.255109  -0.00942835    0.0097105    0.0149214   -0.0125068   -0.0248917  -0.00139097    -0.131131    -0.242834    -0.186439     0.379503     0.305856     0.540536   -0.0696822     0.457161     0.189313      1.09123     0.692831    -0.248219    -0.628227   -0.0894253    -0.201364     0.152142     0.252462    -0.338918    -0.359193    -0.139995    -0.244842    -0.138402    0.0181931    -0.063546    0.0836755    0.0624304   -0.0236061 -0.000500161    -0.041871     0.183923     0.435256     0.353612    -0.439411    -0.348522   -0.0419689     0.291631   -0.0771517    -0.268713   -0.0906049     0.247594      0.15772    -0.573891    -0.590212    -0.299595      0.18989     0.196234    -0.141019    -0.125228   -0.0937962   -0.0410421   -0.0476366    0.0331752   -0.0177248  -0.00599198    0.0134292  -0.00111526    0.0347693     0.125951     0.349522     0.334704     0.234666     0.223065    0.0921249     0.130806    -0.127123    -0.665673    -0.463313   -0.0591993     -0.36986    -0.659871    -0.628683    -0.283318      0.11408     0.147962     0.125051    0.0297194  -0.00793893   -0.0137291   -0.0111814  -0.00351069    0.0162324 -3.38116e-05   -0.0237422  -0.00793573   -0.0580902    0.0907152    0.0305436    0.0369412   0.00671627    -0.177793    -0.168317    -0.171551    -0.348894    -0.174447    -0.265958    -0.117393    -0.136003    -0.316422   -0.0962538     0.176058    0.0506952    0.0483277  -0.00119046    0.0110199    0.0362899   -0.0368252    0.0292858   -0.0249725   -0.0109685   -0.0132286    0.0229703    0.0261564    0.0337496    0.0194657   0.00152409   -0.0106731   -0.0257882    0.0324152    0.0248208    0.0193666   -0.0528427   -0.0168378   -0.0896566    -0.224721   -0.0248747   -0.0374888   -0.0494449    0.0581317    0.0701061    0.0276813    0.0314611   -0.0370108  -0.00409998   -0.0179339    0.0277762   -0.0243019
  -0.0139596    0.0084357   -0.0328738      0.04534    0.0028762   -0.0303839  0.000146664   -0.0268352     -0.02506   0.00509354   -0.0341697  -0.00572539   -0.0249643  -0.00885507   -0.0152462   -0.0775595   -0.0112856    0.0398394   -0.0285716    0.0347426    0.0302984    0.0139951  -0.00365656   -0.0298402  -0.00880945   -0.0359321    0.0534836  0.000620477   0.00135693    0.0568699    0.0309804   -0.0142846    -0.063646    0.0670175   -0.0214227   0.00360522   -0.0403387   -0.0489858   0.00147595   0.00509092    0.0284735   -0.0665159  -0.00375429   -0.0352213   -0.0829535   -0.0229487   -0.0235065   -0.0784318   -0.0235412  -0.00878687  -0.00125553    0.0222866  -0.00190648  -0.00131561  -0.00388808    0.0308244   -0.0224062   0.00398125   -0.0556876   -0.0670586    0.0273874    0.0643086   -0.0113355   -0.0183146    -0.043156   -0.0704469  0.000598815    -0.032471   -0.0675159    -0.124485   -0.0790799   -0.0585581   -0.0320092    0.0769584   -0.0127504    0.0100609    0.0506818    0.0301155  -0.00480601   0.00677471   -0.0448043    0.0498314    0.0233848    0.0287959   -0.0133319   0.00129437   -0.0192628   -0.0298027   -0.0234458   -0.0269602     -0.04497  -0.00618116   -0.0739997   -0.0911767    -0.133736    -0.287846    -0.378717    -0.355171    -0.327387     -1.01009    -0.838989     -0.51777    -0.453092    -0.110121    0.0908235   -0.0367054    -0.035165    0.0125325 -0.000456089   -0.0184956     -0.03463   -0.0107525   -0.0203981    0.0275486   -0.0678619    0.0340062   -0.0140923   -0.0282871     0.017792   0.00410133   -0.0806637    -0.342947    -0.534423    -0.801774     -0.56183    -0.554305     -0.23301    -0.741907     -0.70024    -0.261298    0.0141614   -0.0864528    -0.154617    -0.220556    -0.125685    0.0501526   -0.0158889     -0.26509    -0.192488   -0.0728368  -0.00288395   -0.0268706    0.0505702   -0.0168923   -0.0320865    0.0401169   -0.0895435    -0.165634     0.140507    0.0908136    -0.385916    -0.340285     -0.47723   -0.0785459     0.576443     0.162215    -0.375217    -0.722704    -0.469865    -0.656805    -0.671491     -0.51753    0.0223976     0.145053     -0.12827    -0.262855   -0.0936795   0.00833479    0.0327032   0.00874734   -0.0639827    0.0249587    0.0151401   -0.0692947   -0.0298544     0.426184     0.709073     0.768734    -0.103265     0.105246    -0.157175     0.200923     0.369342  -0.00544658   -0.0479056     0.198293     0.305197   -0.0213084    -0.165831   -0.0898676     0.251632    -0.124996    -0.168714    -0.310576   -0.0781685   -0.0477273   -0.0388284   -0.0838851    0.0169895     0.100386   -0.0988293    -0.261204    0.0381495    0.0215182     0.184135     0.523863     0.346758    -0.185329    -0.146229     0.934713    -0.164194    -0.570991     0.176096      0.47288    -0.446489      0.33368     0.334699    0.0196893     0.142575     0.253846    0.0519935    -0.381977    -0.191745    -0.033795    0.0434128    -0.010895     0.131819    0.0975231    0.0206244     0.372873     0.164605     0.340958     0.442485    0.0354219   -0.0971875    0.0835162   -0.0704459    -0.361716     0.139913     0.175194    -0.392951     0.293828    0.0944874     -0.66779    -0.986535     -0.11686     0.259601   -0.0706566    0.0236192    -0.188446    -0.228484   -0.0379821   -0.0258517    0.0374591       0.1468     0.190389     0.119884     0.327655     0.478613    0.0626269    0.0863683     -0.72203   -0.0702593     0.345925     0.279604     0.167992     0.118914     0.847711    0.0427272    -0.525191     0.275196    -0.558269    -0.281731     0.155487    0.0832329    -0.430292     -0.10297    -0.301715     -0.11016     0.171505    0.0233722   0.00989173     0.136852       0.1942     0.223909     0.197847     0.441757    -0.148121     0.534491     0.174577     0.228488    -0.273663    -0.229783     0.149853      1.02213     0.732139       0.5104   -0.0388974    -0.670418      0.11479    -0.766163    -0.275637    -0.241287    -0.906766     -0.24476   -0.0431461   -0.0465557   -0.0412828    0.0140141    0.0169317    0.0951381     0.233101     0.104642    -0.329301     0.144276      0.48614     0.613208       0.1237     0.525147    -0.113925    -0.166844    -0.741628     0.418006      0.31162      0.71976      1.04986     0.112463     0.391744    -0.152932    -0.260861    -0.739879    -0.828995    -0.314775    -0.245235    -0.253656   -0.0514031    0.0291659    0.0308215    0.0401021      0.35864    0.0577094    -0.745435    0.0191473     0.423793     0.208663    -0.480131    -0.298722    -0.121506    0.0369942     0.985912     0.364736     0.601193      1.25354     0.970573     0.877261     0.150608     0.293508     0.063608    -0.224557      -1.0502    -0.470368    -0.217471    -0.111627   -0.0361125   -0.0184212   0.00204962    0.0114759     0.234125     0.166668    -0.323644     0.136027      1.26562    -0.294228   0.00813709     0.433109    -0.640123     0.697256     0.472578      0.33881     0.220303     0.767058     0.526849      0.34303     0.394515     0.340996    -0.164391    -0.735084     -1.17976    -0.542315    -0.171114    -0.115628    -0.092907     0.038424   -0.0380554  -0.00704184     0.161553     0.253653     0.253622   -0.0148115     0.402505    0.0888556     0.811923     0.598823    -0.230949     0.179369      0.31413      0.18866     0.145573     0.141462    -0.216522      1.09489      0.91023    0.0902463   -0.0791133    -0.377267     -0.60317    -0.595745    -0.200422    -0.140082   -0.0971372    0.0247592   0.00208384   -0.0434726    0.0375495     0.238619    -0.198224    -0.162363    -0.338194     0.374775     -0.25495   -0.0400251    -0.251444     0.290134     0.178654      0.19835     0.472387    -0.153867     0.435847        1.073     0.201846     0.189205   -0.0791096    -0.158757    -0.437297     -0.43059    -0.219435   -0.0750327   -0.0204244   -0.0199017   -0.0515709   -0.0352716    -0.072868    0.0855254    -0.244652    -0.377618    -0.294897     0.595639    -0.334763    -0.204274     0.423885     0.692457     0.291831     0.328882    0.0160663     0.808385     0.385962     0.180621   -0.0196822    -0.385874    -0.491076    -0.406752    -0.653787    -0.817156    -0.499989     -0.23501   -0.0176047   -0.0281064    0.0167325   -0.0665919    -0.050692   -0.0251769    -0.347689    -0.739369    -0.863612     -0.54336     -0.54504     0.694026     0.182405  -0.00596954    -0.129899    -0.234466   -0.0497385      0.81262     0.445611     0.243977    -0.930119    -0.660558    -0.595951    -0.825723    -0.391371    -0.396831    -0.225363    -0.105352   0.00350001  -0.00195946    -0.014734   -0.0418511    -0.108339    -0.108152    -0.741942     -1.20028      -1.1302     -1.14251     -1.51525    -0.893513       -0.309    -0.724346     -0.29833     0.276208   -0.0629458   -0.0653486    -0.510347    -0.947454     -1.37953    -0.894807    -0.482759    -0.931193    -0.719758    -0.206047   -0.0656807   -0.0394246    0.0111883   -0.0528551    0.0257342   -0.0565748    -0.108976    -0.169498    -0.486518    -0.902797     -1.09083     -1.46212     -1.38068     -1.41423    -0.310128    -0.366499     0.128942     0.309526    -0.479276     -1.11887       -1.637     -1.13938    -0.969625    -0.928358    -0.538149    -0.854269     -0.81976    -0.139803    0.0242438    0.0225543    0.0157696   -0.0205221    0.0415347    -0.100265    -0.182518    -0.361753    -0.623218    -0.732802    -0.864245     -1.21311     -1.12149    -0.585272    -0.417272    -0.250226   -0.0511483    -0.270349     -1.07507     -1.27036     -1.56602    -0.621654     -1.01073    -0.934298    -0.346492    -0.550943     -0.60358    -0.159656    0.0836896    0.0264792   0.00219428  0.000541256   -0.0293143   -0.0572701    -0.297997    -0.476113    -0.839604    -0.933816    -0.635233    -0.501058     0.438547     0.440209      -0.8358    -0.371571    -0.539088    -0.840348    -0.986979    -0.357301    -0.953895    -0.216305    -0.653599    -0.401764    -0.483791    -0.498475    -0.251549  -0.00770591     0.049779   -0.0705762    0.0138632   -0.0030864   0.00531896    0.0301353    -0.220874    -0.309304    -0.455892    -0.343321   -0.0784978     0.346913     -0.12418     0.548738    -0.122097      -0.2801    -0.804271    -0.490634     0.119695     0.371649    -0.366531    -0.218313    -0.477732    -0.326082    -0.657551    -0.428461   -0.0952452     0.141853    0.0778673    0.0209008   -0.0492604    0.0205494    0.0171197   -0.0709139     -0.21902    -0.212284     0.140325     0.323853     0.403052     0.108246    -0.243348    -0.128171    -0.215213     0.268905    0.0369492    0.0465984    -0.584233    -0.291779    -0.521018    -0.655103    -0.474198    -0.275969    -0.305783     -0.25722     0.109122     0.145405     -0.03371    0.0582679    0.0412388    0.0265948   0.00538313     0.065977   -0.0948056     0.233489     0.547903     0.492526      0.52849     0.100556    -0.316577    -0.294539    -0.579249    -0.980275     -1.19027    -0.344125      -0.4401    -0.810315    -0.688694    -0.218344    -0.346934    -0.272143   -0.0566881    -0.181225   -0.0300905   -0.0662343    0.0448872    0.0175495   -0.0622476   -0.0208686    0.0553011   -0.0473276   0.00678652     0.360137     0.541098    0.0766382    -0.137483     0.178299    -0.541174    -0.388836      0.30543    0.0664096    -0.450908    -0.743496     -1.06045    -0.415831   -0.0549948    -0.136626    -0.471386   -0.0638596     0.108021   -0.0997778    0.0342144    0.0215814   -0.0334406  -0.00726496  -0.00405825   -0.0208302 -0.000632163   -0.0364225   -0.0377697    0.0508295    0.0312159     0.172934     0.202395    0.0106621     0.224231     0.128653     0.113172      0.13753    -0.106805    -0.119671    0.0469588     0.319343     0.363622     0.322795    0.0554256     0.150167    0.0894617   -0.0802024    0.0184998    -0.014193    0.0427917   -0.0453387   -0.0281345  -0.00327993    0.0516788   -0.0383325    0.0034139    0.0539333   -0.0355248   -0.0250547  -0.00895734    0.0070492   -0.0123211    0.0125621    0.0202155    -0.041026    0.0323712     0.113483     0.126831     0.113604   0.00760856    0.0737205    0.0197051   -0.0119675   -0.0241354    0.0484951  -0.00859179    0.0286741    0.0217943   -0.0094237   -0.0129483
  -0.0406968   -0.0182736   -0.0278523    -0.017036   -0.0138775     0.048762   -0.0254923     -0.03999   0.00601381  -0.00373641    0.0488767   0.00973236  -0.00818644   -0.0560959   -0.0217377   -0.0187178   -0.0433281    -0.016462    0.0171305   0.00116555    0.0519171   -0.0170568   -0.0117692    0.0745147  -0.00297249   -0.0100601  -0.00224233   0.00102861   -0.0326806 -4.53221e-05   -0.0024029   -0.0384176   -0.0746349   -0.0435897   -0.0319472    0.0579705  -0.00996011 -0.000182324   0.00921052   -0.0197289    0.0462745   -0.0163689     0.044235   0.00435444     0.022183    0.0299203  -0.00902368   -0.0575861    0.0786604   0.00742457   0.00573789  -0.00236016   -0.0641085    0.0368708   -0.0383905   -0.0310455    0.0613763    -0.017549  -0.00802555    0.0288095   -0.0374358   -0.0407414  -0.00195105   -0.0105056   -0.0729883    0.0461886    0.0297863    0.0394471    0.0868845    0.0983941    0.0657481    0.0703726    0.0298968    0.0289989   -0.0309955   -0.0006921   0.00648621   -0.0306106      0.02214    -0.055911    0.0301389    0.0184277  -0.00878354   -0.0292092   -0.0144844    0.0235941   0.00531148    0.0197228   -0.0728825   -0.0375112    0.0300795    0.0779538   0.00327197   0.00653366     0.134662   -0.0738577   0.00496779       0.2021     0.121102     0.367504     0.234944    0.0927107    0.0957986     0.162831    0.0658988    0.0678477     0.103098   0.00436261    0.0632996   -0.0177008    0.0808885   -0.0193472   0.00400723    0.0507541   -0.0304899    0.0145599   -0.0344783   -0.0339093   -0.0831085    -0.079295   -0.0241678     0.171575    -0.188301    -0.152509     0.329799    -0.150835     0.147433     0.114808     0.205767     0.338206    -0.144756   -0.0925074      0.33329     0.322449     0.195902     0.152329    0.0655454   -0.0319696    0.0226231   -0.0127477   -0.0123009  0.000325979  0.000104837   -0.0618307     -0.15555    0.0222787     0.233966    0.0743467    0.0139919    -0.100624   0.00656829    -0.217308     0.143291   -0.0375921     0.666683     0.378866     -0.52967     0.263217     0.176137   -0.0129814   -0.0414078     0.437536     0.347205    0.0122614   -0.0105659    0.0675718    0.0674064    0.0113237  -0.00467739  -0.00285954   -0.0631155    -0.195903    -0.360465   -0.0662244     0.234313     -0.27432    -0.549537    -0.292664    0.0064444     -0.43753     0.218511    -0.424361    0.0702089    -0.132545    -0.667337     0.122667     0.260218     0.847588    -0.373071    -0.308396    0.0989641     0.135324    0.0294141   -0.0329906   -0.0596424   -0.0169493   -0.0165556   -0.0322601    0.0561014   -0.0462294    -0.387372    -0.574186    -0.161125    -0.226527    -0.282705     0.702489    -0.884078    -0.264575   -0.0608151    -0.363214    -0.367401     0.376242      0.46453     -0.20452    0.0222065    0.0778523    -0.724146    -0.349053     0.148863     0.361892     0.180707    -0.187841    -0.100497   -0.0120886    0.0541944 -0.000517378    0.0934056    -0.128592    -0.330986    -0.300573    0.0864767   -0.0825516     0.185404    -0.399913     -0.50884     0.170449     0.255178    -0.939737    -0.175411    -0.357411   -0.0664216    -0.741705   -0.0979748     0.247763    -0.231168     0.134398     0.133392     0.258998     0.203429    -0.234557    -0.196392   -0.0580128   0.00810309    0.0456242   -0.0327418    -0.214312   0.00288956  -0.00821373    -0.267562    -0.307722       0.1858    -0.182335     -0.41624   0.00119768   -0.0774704   -0.0986183     0.206269    -0.013191     0.132794    0.0384641     0.294799     0.323626     0.121293     0.256924    -0.371038    -0.120272    -0.143263    -0.357331    -0.115312    0.0047329  -0.00815603    0.0152829    0.0155287    -0.104924      0.31628    0.0646746    -0.555105    -0.283372    -0.153252     0.502993    0.0628274    -0.203413    0.0215579     0.144729     0.428947       0.9606     0.212538     0.279488     0.307751     0.381698     0.143866    -0.313058    0.0754476     0.249872   -0.0871521    -0.296893    -0.096757   -0.0196612      0.01361   -0.0321532    0.0776168     0.158313     0.216833     0.235012    -0.200085     0.377732     0.248637     0.687211    -0.286151    -0.609115     0.129823    -0.399707     0.332463     0.444854    -0.183657     0.242839    -0.222572     0.325512     0.171714     0.789015      0.26824     0.167324     0.100845    -0.147903     -0.16219   0.00868826   -0.0241931    -0.032618    0.0298428     0.189288     0.132553    0.0913491    0.0185435      0.70422     0.107696    -0.151193   -0.0455945     0.391658     0.676553    0.0851473     0.720402     0.817732     0.602897     0.212492    -0.161112     0.342916    -0.643292    0.0507209    -0.855297    -0.645516     0.295187   -0.0606379    -0.066152    0.0304584  -0.00646343    0.0330255   0.00729096     0.123078     0.158115     0.127407     0.273033     0.352232    0.0688224    -0.302413    -0.119419     -0.19977    -0.487529    -0.476314    0.0850103     0.188638      0.36458     0.376378     0.865047     0.676821   -0.0485584     -0.21894    -0.303084    -0.683225    -0.205901   -0.0112613  -0.00359826   -0.0600775   -0.0186016   -0.0258021     0.027749    0.0439826    0.0941182     0.289254    -0.361451    -0.557642      0.32265    -0.149949   0.00217393     0.465499    0.0903884    0.0155652    0.0610276   -0.0688408   -0.0141685     -0.29872      0.46348     0.482987     0.172733    -0.398019 -0.000180818    -0.378927    -0.430697    0.0234255    -0.018876    0.0279347    0.0396194   -0.0208925     0.024744     0.182911     0.141261     0.095737   -0.0502645    -0.230199     0.280215     0.362984    -0.359281     -0.32673    -0.260066     0.252702    0.0188713    -0.070076     0.298499     0.568261      0.29388     0.520337     -0.58683    -0.477763  -0.00841263    -0.337288    -0.493214    0.0808641    -0.047608   0.00509303    0.0137642  -0.00583684   -0.0804757    0.0520356     0.410879     0.479554     0.276142     0.825694     0.939683    -0.418881    -0.747562     -0.59109     -1.20554    -0.899194      0.24572     0.483362      1.24367     0.698032    -0.254677    -0.202154     0.057536    -0.126156    -0.524783    -0.413458    -0.614263    0.0052799   -0.0156231   -0.0332908   -0.0275752    0.0038437   -0.0302582    -0.142553     0.470813     0.581757     0.928486     0.878052      1.14757       1.2469     0.822484     0.215922    -0.594147    -0.346262     0.494697     0.787921      0.95545     0.278933    -0.914359    -0.474576     0.401263   -0.0982707     -0.52474    -0.110313     0.216441     0.094315    0.0174691  -0.00877394    -0.028193   -0.0206945   -0.0746883    -0.274836     0.203838     0.603193     0.556357     0.735805      1.59472      1.90514      2.56238      2.62316      2.13495       2.1447      1.67944     0.845334    -0.841651    -0.662423    -0.890514    -0.796556    -0.502496    -0.676277    -0.686945     0.135376     0.475137    0.0631869   -0.0162339    0.0226399    0.0424383   -0.0209442   -0.0494602    -0.162623     0.340988      0.45555      0.31707     0.110289     0.845704      1.45167      1.48968      1.12209      1.13366      1.11367     0.989751     0.341158    -0.684571    -0.598267    -0.467671    -0.328188    -0.607178     -0.22724    -0.186708     0.365298     0.234389    0.0340411    0.0646929   -0.0396547    0.0070601   -0.0176149   0.00988939    -0.181465    -0.263951     0.164703     0.221593     0.457792     0.137684     0.251875     0.152509     0.313825     0.335129    0.0212829    -0.794267    -0.304813    0.0517404    -0.399437      0.18505     0.417553    -0.447472   -0.0311733      0.22168     0.287096     0.162702    0.0950016    0.0394187   -0.0411047    0.0201022    0.0280198    0.0207497    -0.284646    -0.527422    0.0147628      0.15818    -0.418621     0.245314     0.722615   -0.0357662    -0.574308    -0.531488    -0.515671    -0.592837    -0.101865   -0.0292499     0.274671     0.184641     0.112715    -0.355612     0.215806     0.622141     0.251896     0.235991    0.0984438   0.00259066    0.0299922    0.0334875   -0.0414136   -0.0557082    -0.156107    -0.226037   -0.0107352     0.158358    -0.533469    -0.463558     0.336608    -0.346646    -0.821144    -0.534265    -0.403774    -0.229629      -0.3452     -0.41496   -0.0645123     0.451384    -0.110501   0.00224085     0.500956     0.354914     0.083438    0.0891887    0.0621128   -0.0223681   -0.0299364   -0.0737005   -0.0572848    0.0205629    -0.120599    -0.284445    -0.443896    -0.703929     -0.56592    -0.737248    -0.708159     -1.06428     -1.04151      0.15566    -0.122816    -0.860681    -0.450093     0.588297    -0.302486    -0.113396     0.100187      0.28728     0.197997    0.0385887   -0.0169385   -0.0185582    0.0755631   -0.0483069   -0.0359759    -0.024381    0.0628012      0.01306    -0.201704    -0.456749    -0.577043    -0.959925     -1.01516    -0.840411    -0.954132    -0.852655    -0.269732     0.336859  -0.00621044     -1.25595    -0.430359     0.352465     0.164612     0.256282     0.106351   -0.0598094   -0.0570378   -0.0104614    0.0221312   -0.0509848    0.0209614   -0.0153918    0.0418719    0.0431564   -0.0339665  -0.00120207   -0.0307193   -0.0482576    -0.253283    -0.432376    -0.407277    -0.484508    -0.186338    -0.407632     -0.33318     -0.78096    -0.900403    -0.200528     0.151926     0.117006    -0.182961    -0.306468    -0.379111    -0.093629   -0.0792859  -0.00472329    0.0353791   -0.0539594   -0.0251356   0.00139365   -0.0452449   -0.0188513    0.0165115   -0.0143219    0.0889381    0.0362949    -0.108674   -0.0441325    0.0482609     0.111624   0.00801455     0.047058    0.0730815     0.056472     0.155547     0.141303         0.25   -0.0486551      -0.2913     -0.43225    0.0520429    0.0519941    -0.013162    0.0384088   -0.0193433    0.0104556   0.00879148  -0.00785788   -0.0182933    0.0158711    -0.016085   0.00140981    0.0123035   0.00108704   0.00830725    -0.062455   -0.0116555  0.000367404   -0.0233223    0.0374486    0.0333711     0.021498   -0.0115667   0.00160803    0.0471576    0.0271112   -0.0664094  0.000862759    0.0510205    0.0159041    0.0542138   -0.0255259  -0.00299672  -0.00162234   -0.0184058    0.0251493    0.0489117
-0.000439123    0.0440659   0.00151976   -0.0326751   -0.0333973    0.0217552   -0.0451689     0.035582    0.0112786    0.0146106    0.0066244    0.0141554    0.0152781   -0.0225055     0.038368    0.0127283    0.0417614   -0.0167251    0.0126639    0.0293672  -0.00151706    0.0258153   0.00684847    0.0618535     0.031665   -0.0736646    0.0227661    0.0187066   -0.0120796   -0.0524401   -0.0278915  -0.00923888    0.0350295    0.0199605    0.0265962    0.0181835   -0.0528874    0.0398929   -0.0394194   -0.0254706   -0.0306436    0.0312585   -0.0724639   -0.0419334   -0.0165433    0.0331543    0.0049524   -0.0353948   -0.0228879   -0.0279705  -0.00837251    0.0354193  -0.00282971   -0.0112501  -0.00875222   -0.0163554    0.0107587    -0.036565   -0.0206294    0.0144265    0.0146704   -0.0573991   0.00641147   -0.0500734    0.0516828  -0.00840622   -0.0296497   -0.0800306    -0.055569     -0.11003   -0.0831209    0.0605726     0.098756     0.129556     0.178143     0.107208    0.0375611    0.0376738    0.0104642    0.0278649    0.0303286  -0.00904025    0.0579342   -0.0963121    0.0592459  -0.00827028  -0.00811341     0.013725    0.0307802    0.0287281 -0.000415043  -0.00133327   -0.0705082    -0.133513    -0.356591    -0.269664     0.238607     0.446694     0.149135    0.0824764     0.414523     0.503125     0.228966     0.123842     0.130876    0.0116399    -0.170043   -0.0830923   -0.0327525    0.0213457   -0.0191474  -0.00451551   0.00766729    0.0286248   -0.0208966   -0.0207689    0.0468596    0.0908364     0.127889   -0.0451115    0.0408446    -0.215331    -0.399155     0.280398     0.343074   -0.0269128    -0.018947     0.705933     0.191662    -0.332411    -0.308036    0.0112711    -0.254153     0.118791    0.0828462     0.101618    0.0911475    0.0155646   -0.0658835    0.0270779    -0.026471    0.0101453    0.0192238     0.101865   0.00287077     0.186645     0.089117     0.183601   -0.0166132    -0.244075     0.593659    0.0804526     0.608295    -0.195536    -0.469616     0.515031    0.0292175    -0.326049     0.012888   -0.0944682    -0.152674    -0.388827   -0.0320118     0.412469     0.220982   -0.0560329    -0.060695   -0.0474717   -0.0125638    0.0364022   0.00343441    0.0290314     0.133223     0.132219     0.288068     0.159614   -0.0694308     0.242307    0.0779791     0.277138    -0.436767    0.0426876    -0.188565   -0.0449021      0.17107    0.0407542     0.110222   -0.0724764    -0.135584    -0.333706    -0.206304     0.311972     0.136436     0.100561  0.000720605    0.0173488    0.0256854   -0.0702015    -0.122871   -0.0987274   -0.0943934    0.0208526   -0.0469198    0.0110883    -0.101335    -0.210101    -0.245022  -0.00544615    -0.275464    -0.234377        0.491   -0.0115372     0.702083     0.263801    -0.432073     0.577013     0.315121     0.238821     0.330963     0.142113      0.21587     0.239359   -0.0260847     0.018159   0.00181305  -0.00770728   -0.0505416    -0.114049   -0.0779196     0.412337     0.247945    -0.591679     0.201736     0.298204    0.0257158     0.162497   -0.0136783     0.155859    0.0260757    -0.266188   -0.0395774    -0.437063    -0.476741   -0.0973142    -0.318719     -0.40355     0.267224    0.0870805     0.537512     0.526915   0.00123931   -0.0139248   -0.0309122    0.0159901     -0.17861     -0.22837     0.199173     0.170609     0.439447    -0.103118   -0.0911514     0.304802    -0.166778     0.129452    -0.211615    0.0308303     0.262719    -0.184109    -0.253889    -0.108674    -0.454837    -0.197146    -0.120164     -0.20725     0.673385     0.179642     0.934739     0.494781    0.0553401    0.0134898   -0.0124135   -0.0331259   -0.0932154    -0.210176    0.0260905    -0.113238    -0.205488     0.257073     0.376967   -0.0971351    -0.279005    -0.325498    -0.170521    -0.684305     0.330346     0.274972    -0.336111    -0.215451    -0.316261    -0.249268    0.0716483     0.263907    0.0701213     0.143659     0.368356     0.543443     0.144355   -0.0189304  -0.00412855  0.000508725    -0.238975    -0.370682    -0.329203    -0.260394    -0.216488     0.115035      0.10238   -0.0415986     0.100075    -0.906066     0.409106     0.591925     0.563765    -0.115872   -0.0331005     0.421596     0.788648    -0.412004     0.249175    -0.224023    -0.451056    -0.233963    0.0291802     0.251679     0.124722  0.000110227   -0.0508192   -0.0198584   -0.0776535    -0.581367    -0.621589    -0.371494     0.181602     0.261118   0.00462492   0.00120082     0.756066     0.918649     0.411132     0.639109     0.926051    -0.223325     0.703983    -0.285896    -0.243855    -0.714911    -0.146473   -0.0695849    -0.531387    -0.281273    -0.266374    0.0419165    0.0645342    0.0140453   -0.0278232   -0.0109375   -0.0566716    -0.415453    -0.529509    -0.356034   -0.0275453     0.597131      0.53109     0.744202     0.111146     0.386523      0.23401     0.471251     0.302525    -0.564833    0.0222215    0.0850743    -0.137783    0.0277849     -0.33168    -0.313791    -0.703756    -0.357162    -0.429335    0.0282234    0.0312487   -0.0430869   0.00361773   -0.0101379   -0.0409266    -0.211712    -0.316828    -0.467512    -0.674601     0.312091    0.0314081     0.218864   0.00587275    -0.221221  -0.00256661    -0.214214     0.855284     0.512799    -0.329932     0.302875  -0.00407326     -0.35735    -0.557636    -0.285035    -0.308258    -0.309141    -0.369988    -0.160059   -0.0219529    0.0477937   -0.0564929   -0.0317354  -0.00569781   -0.0694368    -0.244356      -1.0063     -1.21081     -1.23275    -0.835297   -0.0589854      1.02713     0.609892     0.801388     0.381945     0.493385    -0.204515    -0.217196   -0.0394479     0.247538   -0.0429948    -0.121636     0.206071    0.0291466   -0.0461114    -0.245921     -0.23437   -0.0104061  -0.00559873  -0.00360888   -0.0306775    0.0647677   -0.0247808    -0.310398    -0.964998     -1.74326     -1.91709     -1.87772     -1.40115    -0.411489     0.162013     0.534148    0.0937524     0.321071     0.313345   -0.0636093    -0.716221     0.270552    -0.210432    -0.200598   -0.0645922     0.130848   -0.0990066    -0.122429    -0.314361   -0.0864578   -0.0365739    0.0217099   -0.0136505    0.0274623     0.178078   -0.0984491    -0.620792     -1.40462     -1.64683     -2.57181     -3.19057     -3.54334     -3.14658     -2.19832     -1.58994    -0.514666     -1.03327    -0.479121    -0.686659     0.121936    -0.317666    -0.107512    -0.311677    -0.101905    -0.222657    -0.372197    -0.150834    -0.160269  -0.00570807   -0.0901978   -0.0362901    0.0448418     0.436077     0.200103    -0.456865    -0.053909    0.0834955    -0.568901     -1.76323     -1.84104     -2.56153     -2.35338     -1.08323    -0.139153    -0.447849    -0.115704    -0.288788    -0.603605    0.0692385     0.258461    -0.316188   -0.0258282    -0.634975    -0.459543    -0.062973    -0.106023    0.0545166    0.0341197   -0.0125688   -0.0464084     0.241988    0.0173009     0.237072   -0.0442955     0.297483     0.467291     0.149962    -0.127593   -0.0831976     -0.22018    -0.110022   -0.0964482    -0.495842     0.165336    -0.792645    0.0484824    -0.148964    0.0291313     -0.38895     0.175672    -0.324539    -0.318047    0.0113992 -7.61811e-05   -0.0358954   0.00346453    0.0576656    -0.212384    -0.292128    0.0871409     0.474404   -0.0934138   -0.0422076     0.716229     0.874621      1.25627     0.972345      0.34587    0.0900062   -0.0325601     -0.57093    0.0789556    -0.187408     0.733362     0.126397    -0.164137    -0.375907     0.304848     0.165573   -0.0803953    0.0134018    0.0240792   0.00147126    0.0379093    0.0224533    -0.398861    -0.313983      0.42624     0.791458      0.16118     0.748324     0.931658     0.487213     0.502748      0.34208     0.212471     0.128689    0.0885704    -0.337836    -0.564949    -0.446442     0.208578    -0.389905     0.189683     0.275849   -0.0719968    -0.174362   -0.0238074   -0.0830559   -0.0254262   -0.0154107    0.0246718   -0.0567228    -0.244594   -0.0663844      0.20873     0.574064     0.510063     0.131706     0.643954      0.24399     0.651392     0.574797     0.235063     0.454153     0.553727     0.185199    -0.821677     -0.56826    -0.243942   -0.0633049    -0.189364     0.024986    -0.265796    -0.390383      -0.3241    -0.258709   0.00804453   -0.0106267  -0.00127578    0.0485436    0.0118141     0.168361     0.436191     0.780927     0.329457   -0.0813456     0.328228     0.040669     0.165001    0.0148633     0.304956    0.0213441    0.0377032      0.14384     0.358425     0.184297   -0.0984543    -0.273826    -0.469529    -0.308846    -0.368084    -0.344023    -0.169841    -0.203922    0.0246984    0.0344757   -0.0066244   -0.0144208    0.0206683    0.0800564     0.252033     0.382699      0.25445     0.598984     0.605851     0.697999     0.740922    -0.575772    -0.110422   -0.0836344    -0.115472   -0.0678999      0.48141    -0.223449   -0.0803899    -0.158061    -0.147302    0.0862237   -0.0438228     -0.15718    -0.103133   -0.0242533      -0.0211   -0.0157624   -0.0142165   0.00958258   -0.0112131  -0.00422751    0.0750252    -0.065124    -0.348153    -0.241344     0.185229    0.0706882     0.166708    -0.204181    -0.206103     0.841366    0.0171547    -0.461079     0.498809     0.465211      0.22097   0.00921073     0.159338  -0.00552187    0.0259371     0.035214  0.000418967  -0.00562388   -0.0555238   -0.0461899    0.0281603  0.000639274    0.0383747    0.0259209    0.0423542   -0.0618015    -0.139145    -0.109259    -0.124783   -0.0409701   -0.0850959    -0.119941    -0.447655     -0.48957    0.0532387     0.233907     0.218051     0.186664     0.230794    -0.219297   -0.0736364   -0.0629098   -0.0340866   -0.0375042    0.0148928    0.0402082   0.00968182    0.0434448    0.0177351    0.0437791 -0.000787744     0.101958   0.00740844  -0.00894053   -0.0180452    0.0421141   -0.0779266   0.00109439   -0.0468249   -0.0285477    0.0214396    0.0493219   -0.0449433     0.217951   -0.0399662   -0.0196779    0.0568697    -0.194258   -0.0746976   -0.0589962   -0.0618388   -0.0216989   -0.0625751   -0.0409147   0.00648373    0.0816084
 2.85397e-05   -0.0715564   -0.0256107    0.0157813   -0.0731854    0.0106581   -0.0225722    0.0633178    0.0459323   -0.0368851     0.125103    0.0159771   -0.0256843   -0.0159849    0.0196273   0.00557569    0.0277878   -0.0277866  -0.00859161   -0.0212994   -0.0521367  -0.00977883    0.0310517   -0.0218271   -0.0256712   -0.0452177    0.0454839  -0.00204726  0.000892808    0.0305316    0.0191537   -0.0469384     0.040621  -0.00100963   -0.0547667    0.0368628    0.0376463    -0.020839    0.0179418   0.00725657  -0.00696798      0.01815    0.0121638   -0.0436704    0.0239976   -0.0518259    -0.033992    0.0246709   -0.0428503   0.00492882   -0.0395402    0.0303755  -0.00228492   -0.0135353   -0.0252752   -0.0149749  -0.00200147    0.0213987    0.0499611  -0.00100486    0.0456849 -0.000191569  -0.00526069    0.0408221    0.0327178   -0.0713248   -0.0408615   -0.0882825    -0.117921    -0.111244   -0.0839018     0.242873   -0.0370839    -0.212086    -0.118919     0.208913    0.0978191    0.0500315    0.0640728    0.0181312    0.0300464   -0.0259247  -0.00696679   -0.0377451   -0.0658936    0.0192528   -0.0120541    0.0652167    0.0133046    0.0209415  -0.00996877     0.102009   -0.0570157    -0.242104    -0.155007    -0.604348    -0.815666    -0.900011    -0.839223    -0.382999    -0.246411    0.0152262    -0.227798    -0.253671   -0.0278148   0.00446387    0.0444005    0.0558093    0.0192364    0.0302872   -0.0228366   -0.0531412   -0.0350253  -0.00925374  -0.00919845   -0.0264598    0.0217537   0.00354356    0.0569812  0.000953757    -0.120318    -0.279217    -0.561338    -0.393291    -0.634805    -0.766892    -0.797197    -0.100918      0.46862    0.0228427   -0.0197668     0.528811     0.138073     0.249931      0.43894     0.178824    -0.223573    -0.126333    -0.139819    0.0487631   -0.0458183   -0.0183313   -0.0354533 -0.000378267  -0.00879476    0.0415583     0.202925     0.165833     0.268707      0.26192   -0.0238619    -0.585422    -0.681402    -0.598661    -0.243445    0.0455566  -0.00320819     0.471257     0.749358     0.640402      0.16398    -0.137267     0.106514    -0.125518    -0.173302   -0.0930615   -0.0717229   -0.0439203   -0.0132077  -0.00460446   0.00257007    0.0652541    0.0833285     0.162545     0.176456     0.151888      0.59518    -0.429589    0.0169542    0.0220287     0.594904    -0.581112    -0.985743    -0.436043     0.506516     0.784526    0.0594289 -0.000114591     0.387213     0.349832     0.359775    -0.051434    -0.210784    -0.202363    -0.118639   -0.0715557   -0.0180402      0.06729  0.000525633    0.0428991     0.302004     0.549292       0.1123   -0.0116674    -0.394509    -0.165281     0.535255   -0.0138535    -0.248052    -0.893179    -0.928664     0.160163     0.357879     0.958202    -0.214098     0.273259     0.158754     0.136507     0.278238    -0.165491    -0.082022    -0.112225   -0.0663551  -0.00627021     0.021449    0.0179322   -0.0487644    0.0594188     0.051845     0.552522    0.0799065     -0.29277    -0.232777     0.429778     0.096676    -0.457919   -0.0537662       -1.155     -0.21427      1.25775    0.0902063      0.74302     0.324761     0.643235     0.184454     0.102887     0.372077    -0.743139    -0.358124    -0.214389   -0.0804369    0.0107445    0.0358287    0.0327347   -0.0232815    -0.127768   -0.0765842    0.0479112     0.408309     0.158715    0.0157954      0.43598     0.464693    -0.307247    -0.511731     -1.30033     0.201614      1.09755      1.06542     0.647704     0.312233     0.625448    0.0921035    0.0396401    -0.153439    -0.555413   -0.0306781     -0.31056   -0.0364612    0.0453418   0.00865435    0.0115073    0.0430883    -0.157857   -0.0153772    -0.245064     0.176384     0.269494    -0.350096     0.255663    -0.151917     -0.49762    -0.947732      -1.4088     -0.11226     0.890804     0.941604     0.346695     0.339172     0.182626     0.237265    0.0901018     0.196353    -0.177935    -0.327018    -0.323217    -0.124276  -0.00907995    0.0082888   -0.0745355    0.0112466    -0.107485    -0.325651    -0.485519     0.635948     0.426272    -0.111396       0.3303     0.103573    -0.643201     -1.57384     -0.74623    -0.134865      1.12653     0.555811    0.0849713     0.108052    -0.229155    -0.021422     0.157876     0.189283      0.22272     0.237695    -0.232723   -0.0148972    0.0645916    0.0735717   -0.0297791    0.0164633   -0.0796132    -0.266579   -0.0218411     0.653084     0.216081     0.250768      0.80339   -0.0569271    -0.252989    -0.374683    -0.759626    -0.283937     0.974212    -0.151187    -0.433008    -0.101348    -0.572652    -0.205781    0.0460745     0.181951     0.259707     0.741718  -0.00444178   0.00255258    0.0019271    0.0365288   -0.0409827    0.0886677    -0.114064    -0.215791   -0.0596643     0.341734     0.155676     0.409524     0.206068    -0.254708    -0.642358      -1.4765    -0.700279    0.0607997    0.0802912    -0.209566    -0.191322    -0.599257    -0.624806     0.267522    -0.222306    0.0857893     0.217697     0.302922     0.196701   0.00310259  -0.00118901   -0.0454446   0.00174799   -0.0293713    -0.137644    -0.168111     0.548207     0.325414     0.555736     0.221723    0.0286612    -0.330402    -0.515603    -0.835034    -0.693619    -0.223224  -0.00171241     0.250361    -0.368652     -1.00583    -0.184194     0.262515   -0.0538621     0.323803     0.549407     0.316494    0.0827895    -0.130757    0.0194805  0.000205707   -0.0797216   -0.0858168    -0.249223    -0.284898     0.177975   -0.0761974     0.419384      0.56691   -0.0361398    -0.275448    -0.681778    -0.804981    -0.369851      -0.2611     0.504163     0.604163     -0.18852    -0.350064    -0.594785    -0.475219     -0.44183   0.00545097     0.295625   -0.0974025    -0.151659    0.0809874    0.0169671    0.0205914    0.0251905     -0.19432    -0.318676    -0.224664    -0.171588     -0.20141    0.0914838     0.498178     0.321395    -0.278057    -0.914331    -0.590849    -0.455894    -0.340001     0.641367     0.652575    -0.557556    -0.260494    0.0609698     0.306234   -0.0391879    0.0379434   -0.0696462     0.237669    -0.119259    0.0486232    0.0114325   -0.0149245    0.0138464    -0.191943    -0.324908    -0.265466      0.34337     0.247198    -0.119926    0.0336874    0.0660726    -0.679707    -0.131527   -0.0131738  0.000842415    -0.237968     0.191664      1.09241     -0.54116   -0.0662191     0.295058     0.430616      0.17242    0.0529724     0.155317     0.564877   -0.0224719      0.10576  -0.00574726   -0.0780134   0.00629944   -0.0439584    -0.243699   -0.0793104     0.176677    0.0385247    -0.192128     0.254845     0.925732    -0.126526     -0.31028     0.364517   -0.0354046    -0.292311     0.133221    -0.475641    -0.802392    -0.381578   0.00616059     0.387745     0.372365    -0.197554   0.00434107     0.340776    0.0749982   0.00357706   -0.0633775    0.0224682    0.0312227  -0.00973252    -0.195751    -0.194428    -0.286594     0.119117     0.463566     0.474744     0.380551    -0.419212    -0.658805    -0.429619    -0.508493   0.00159758    -0.302519    -0.297651   0.00105525     0.289392     0.113905  0.000262884    0.0639307    0.0852699    0.0167573     0.396059     0.135352   -0.0119251    0.0191992    0.0479648    0.0040393   -0.0834553    -0.356622     -0.48911    -0.241689    -0.231229    0.0823589   -0.0249357     -0.18682     0.251587    -0.741191   -0.0709526     0.295696    0.0182083    -0.509873     -0.34801    -0.408871    0.0810356    -0.434389    -0.422232    -0.219236   -0.0600878    -0.189703     0.243431  -0.00112783     -0.02452   -0.0182556   -0.0386325    0.0169397    -0.198227    -0.157733    -0.414123     0.576388     0.299426     0.492505     0.292858     0.188866     0.838263     0.909417       0.2076    -0.425177   -0.0189389    -0.289718    -0.396669    -0.343997    -0.345102    -0.323377    -0.120471    -0.271251    -0.224175    -0.306866    0.0624768   -0.0266745     0.116252   -0.0260633    0.0139103   -0.0177097   -0.0733412    -0.100775    -0.454101     0.696641     0.655834     0.633491     0.488141     0.308379   -0.0962265    -0.733408    -0.749089    -0.323142     -0.21489     -0.37882    -0.137708   -0.0253572   -0.0366931    -0.217722    -0.218283     0.381115   -0.0185598    -0.124029    -0.250428   -0.0855825   0.00701713    0.0670053  -0.00448867   -0.0164948   0.00544266   -0.0572926    -0.190629     0.592981     0.836776     0.238459    -0.627771     0.215912     0.148975     0.403349     0.519737     0.455899    -0.333746     -0.45734     -0.39846    -0.457543     -0.40766    -0.461559    -0.435139    -0.155034    -0.142433   -0.0259491    -0.272724   -0.0311135    0.0950888    0.0632322   -0.0501837   -0.0329051    0.0120878   -0.0298128     0.251931     0.774077     0.869227     0.241358     0.031861     0.357649    -0.391391    -0.454952   -0.0342719    -0.259281    0.0664002     0.182355     -0.44968     -0.68846    -0.480911    -0.596835    -0.471963    -0.119725    -0.332255    -0.150076   0.00748992    0.0138741   -0.0532522    -0.020958   -0.0114998   -0.0245316   -0.0308827    0.0266801      0.11851     0.197402     -0.16869   -0.0882452     0.057874  -0.00686249    -0.873654    -0.762287     0.313141     0.260785     0.132476    -0.182304    -0.661747    -0.640003    -0.508941    -0.497433    -0.375638    -0.367462    -0.239847   -0.0143934   -0.0157511   0.00600463    0.0192946   -0.0466874    0.0264454    0.0616772   0.00392306   -0.0212492   -0.0448078   -0.0437872    -0.155694    -0.125967    0.0377963    0.0185974   -0.0207608    -0.344543    -0.280913    -0.115323   -0.0524542    0.0417717   -0.0392873   -0.0510804   -0.0115155    0.0427837   -0.0154804   -0.0487602   -0.0612542    -0.021067     0.011578    0.0407961    0.0107226    0.0594408    0.0333883   -0.0733726   0.00582592    0.0179154   -0.0668626   -0.0606131    0.0135859     0.041364   -0.0140085   -0.0370012    0.0593056   -0.0595284   -0.0866788   -0.0744469   -0.0102384     -0.11943   -0.0201822  -0.00709465    -0.113052 -0.000372729   0.00142546    0.0190318   -0.0615223   -0.0159625  -0.00581761   -0.0124346    0.0282194   -0.0021716
